-0.679893	-0.260312	0.271010	0.569132	-0.840948	0.868205	0.546551	-0.008640	-0.177908	-0.062882	
-0.688682	-0.270295	0.268593	0.558144	-0.838192	0.861787	0.558660	-0.014644	-0.191077	-0.033537	
-0.691419	-0.279828	0.264511	0.554212	-0.835931	0.860986	0.562356	-0.018301	-0.197881	-0.008743	
-0.692216	-0.289364	0.260096	0.551990	-0.834170	0.862322	0.562783	-0.021597	-0.202734	0.013668	
-0.692326	-0.299012	0.255630	0.550242	-0.832665	0.864455	0.561990	-0.024850	-0.206946	0.034803	
-0.692173	-0.308810	0.251193	0.548617	-0.831298	0.866903	0.560730	-0.028114	-0.210957	0.055111	
-0.691908	-0.318769	0.246812	0.547000	-0.830022	0.869496	0.559275	-0.031398	-0.214923	0.074777	
-0.691585	-0.328893	0.242498	0.545355	-0.828817	0.872181	0.557721	-0.034703	-0.218903	0.093887	
-0.691224	-0.339183	0.238258	0.543668	-0.827675	0.874944	0.556105	-0.038030	-0.222921	0.112494	
-0.690834	-0.349636	0.234094	0.541934	-0.826588	0.877786	0.554443	-0.041376	-0.226988	0.130638	
-0.690417	-0.360250	0.230010	0.540152	-0.825551	0.880714	0.552743	-0.044740	-0.231112	0.148350	
-0.689977	-0.371023	0.226006	0.538320	-0.824562	0.883741	0.551011	-0.048121	-0.235297	0.165663	
-0.689513	-0.381952	0.222085	0.536437	-0.823617	0.886877	0.549252	-0.051517	-0.239545	0.182603	
-0.689028	-0.393033	0.218247	0.534505	-0.822712	0.890137	0.547471	-0.054927	-0.243861	0.199197	
-0.688523	-0.404264	0.214493	0.532522	-0.821844	0.893538	0.545673	-0.058350	-0.248247	0.215469	
-0.687998	-0.415639	0.210823	0.530488	-0.821011	0.897096	0.543863	-0.061783	-0.252705	0.231443	
-0.687454	-0.427157	0.207237	0.528403	-0.820212	0.900832	0.542047	-0.065226	-0.257237	0.247138	
-0.686892	-0.438810	0.203735	0.526267	-0.819442	0.904768	0.540229	-0.068675	-0.261843	0.262575	
-0.686314	-0.450596	0.200315	0.524079	-0.818702	0.908928	0.538417	-0.072131	-0.266524	0.277771	
-0.685721	-0.462507	0.196975	0.521840	-0.817988	0.913339	0.536614	-0.075591	-0.271281	0.292744	
-0.685114	-0.474539	0.193715	0.519550	-0.817300	0.918029	0.534828	-0.079054	-0.276114	0.307507	
-0.684495	-0.486684	0.190530	0.517208	-0.816637	0.923031	0.533065	-0.082517	-0.281021	0.322077	
-0.683866	-0.498937	0.187420	0.514813	-0.815996	0.928376	0.531331	-0.085981	-0.286002	0.336465	
-0.683230	-0.511289	0.184379	0.512367	-0.815378	0.934100	0.529632	-0.089442	-0.291054	0.350685	
-0.682587	-0.523733	0.181405	0.509869	-0.814781	0.940238	0.527976	-0.092901	-0.296177	0.364747	
-0.681943	-0.536260	0.178492	0.507319	-0.814206	0.946829	0.526369	-0.096356	-0.301366	0.378662	
-0.681300	-0.548863	0.175636	0.504717	-0.813651	0.953909	0.524819	-0.099806	-0.306620	0.392439	
-0.680662	-0.561531	0.172833	0.502063	-0.813117	0.961515	0.523331	-0.103250	-0.311935	0.406090	
-0.680034	-0.574257	0.170075	0.499357	-0.812603	0.969682	0.521914	-0.106689	-0.317306	0.419621	
-0.679422	-0.587029	0.167358	0.496599	-0.812109	0.978445	0.520575	-0.110122	-0.322730	0.433041	
-0.678830	-0.599839	0.164674	0.493789	-0.811637	0.987836	0.519322	-0.113549	-0.328202	0.446358	
-0.678266	-0.612676	0.162018	0.490926	-0.811186	0.997880	0.518160	-0.116973	-0.333717	0.459579	
-0.677736	-0.625530	0.159381	0.488012	-0.810758	1.008603	0.517098	-0.120395	-0.339269	0.472709	
-0.677249	-0.638390	0.156757	0.485046	-0.810353	1.020023	0.516144	-0.123816	-0.344853	0.485755	
-0.676812	-0.651246	0.154138	0.482028	-0.809972	1.032152	0.515303	-0.127240	-0.350462	0.498721	
-0.676434	-0.664087	0.151517	0.478957	-0.809617	1.045000	0.514584	-0.130670	-0.356091	0.511610	
-0.676126	-0.676903	0.148885	0.475835	-0.809289	1.058566	0.513993	-0.134111	-0.361732	0.524425	
-0.675895	-0.689681	0.146235	0.472659	-0.808990	1.072845	0.513537	-0.137569	-0.367378	0.537168	
-0.675752	-0.702412	0.143559	0.469432	-0.808722	1.087827	0.513224	-0.141049	-0.373022	0.549837	
-0.675707	-0.715083	0.140850	0.466151	-0.808486	1.103492	0.513059	-0.144559	-0.378657	0.562431	
-0.675769	-0.727684	0.138099	0.462816	-0.808284	1.119816	0.513050	-0.148108	-0.384274	0.574947	
-0.675948	-0.740202	0.135299	0.459427	-0.808118	1.136768	0.513202	-0.151706	-0.389865	0.587381	
-0.676251	-0.752626	0.132442	0.455983	-0.807992	1.154312	0.513522	-0.155362	-0.395421	0.599724	
-0.676688	-0.764944	0.129521	0.452484	-0.807906	1.172406	0.514016	-0.159090	-0.400935	0.611970	
-0.677265	-0.777144	0.126530	0.448927	-0.807863	1.191002	0.514688	-0.162904	-0.406395	0.624108	
-0.677989	-0.789214	0.123461	0.445313	-0.807866	1.210050	0.515546	-0.166817	-0.411794	0.636127	
-0.678863	-0.801142	0.120308	0.441639	-0.807917	1.229494	0.516592	-0.170847	-0.417121	0.648015	
-0.679893	-0.812915	0.117064	0.437904	-0.808018	1.249277	0.517834	-0.175012	-0.422367	0.659757	
-0.681079	-0.824523	0.113724	0.434106	-0.808171	1.269337	0.519274	-0.179329	-0.427522	0.671339	
-0.682423	-0.835951	0.110282	0.430244	-0.808379	1.289614	0.520919	-0.183822	-0.432576	0.682744	
-0.683923	-0.847189	0.106732	0.426315	-0.808643	1.310044	0.522770	-0.188510	-0.437517	0.693958	
-0.685576	-0.858224	0.103070	0.422317	-0.808967	1.330564	0.524833	-0.193418	-0.442337	0.704962	
-0.687378	-0.869046	0.099291	0.418248	-0.809351	1.351112	0.527111	-0.198570	-0.447025	0.715742	
-0.689324	-0.879643	0.095389	0.414104	-0.809798	1.371625	0.529608	-0.203993	-0.451570	0.726279	
-0.691405	-0.890005	0.091360	0.409884	-0.810310	1.392044	0.532325	-0.209713	-0.455963	0.736560	
-0.693613	-0.900121	0.087200	0.405585	-0.810888	1.412313	0.535267	-0.215758	-0.460194	0.746568	
-0.695939	-0.909982	0.082903	0.401203	-0.811534	1.432375	0.538436	-0.222156	-0.464254	0.756291	
-0.698371	-0.919581	0.078465	0.396735	-0.812250	1.452182	0.541834	-0.228937	-0.468134	0.765714	
-0.700898	-0.928909	0.073882	0.392178	-0.813038	1.471686	0.545464	-0.236129	-0.471825	0.774827	
-0.703507	-0.937960	0.069147	0.387529	-0.813898	1.490843	0.549328	-0.243762	-0.475320	0.783620	
-0.706187	-0.946730	0.064256	0.382785	-0.814833	1.509616	0.553428	-0.251865	-0.478612	0.792085	
-0.708923	-0.955214	0.059203	0.377942	-0.815843	1.527972	0.557767	-0.260466	-0.481695	0.800217	
-0.711705	-0.963410	0.053981	0.372996	-0.816931	1.545881	0.562347	-0.269592	-0.484563	0.808010	
-0.714519	-0.971317	0.048585	0.367945	-0.818098	1.563320	0.567169	-0.279271	-0.487214	0.815462	
-0.717354	-0.978936	0.043006	0.362786	-0.819344	1.580270	0.572237	-0.289528	-0.489644	0.822575	
-0.720200	-0.986268	0.037236	0.357514	-0.820673	1.596718	0.577552	-0.300385	-0.491852	0.829349	
-0.723045	-0.993317	0.031268	0.352128	-0.822085	1.612653	0.583116	-0.311864	-0.493838	0.835789	
-0.725883	-1.000088	0.025091	0.346625	-0.823581	1.628071	0.588932	-0.323987	-0.495603	0.841900	
-0.728705	-1.006588	0.018696	0.341002	-0.825165	1.642973	0.595003	-0.336770	-0.497150	0.847690	
-0.731506	-1.012826	0.012073	0.335256	-0.826837	1.657362	0.601330	-0.350232	-0.498483	0.853170	
-0.734281	-1.018810	0.005209	0.329385	-0.828599	1.671245	0.607917	-0.364386	-0.499609	0.858349	
-0.737027	-1.024553	-0.001906	0.323389	-0.830454	1.684634	0.614765	-0.379247	-0.500533	0.863241	
-0.739744	-1.030067	-0.009285	0.317264	-0.832404	1.697543	0.621878	-0.394828	-0.501265	0.867860	
-0.742430	-1.035365	-0.016940	0.311012	-0.834450	1.709989	0.629257	-0.411139	-0.501814	0.872221	
-0.745089	-1.040462	-0.024886	0.304629	-0.836596	1.721992	0.636905	-0.428193	-0.502193	0.876340	
-0.747723	-1.045373	-0.033134	0.298117	-0.838844	1.733572	0.644825	-0.446000	-0.502413	0.880233	
-0.750337	-1.050115	-0.041699	0.291475	-0.841195	1.744753	0.653018	-0.464569	-0.502488	0.883920	
-0.752937	-1.054705	-0.050594	0.284705	-0.843654	1.755560	0.661486	-0.483912	-0.502432	0.887417	
-0.755530	-1.059160	-0.059832	0.277807	-0.846222	1.766017	0.670231	-0.504038	-0.502261	0.890743	
-0.758126	-1.063498	-0.069425	0.270783	-0.848903	1.776151	0.679253	-0.524955	-0.501992	0.893918	
-0.760733	-1.067737	-0.079386	0.263634	-0.851698	1.785988	0.688553	-0.546672	-0.501641	0.896958	
-0.763364	-1.071896	-0.089727	0.256364	-0.854611	1.795556	0.698130	-0.569196	-0.501227	0.899884	
-0.766028	-1.075992	-0.100456	0.248976	-0.857644	1.804881	0.707985	-0.592531	-0.500767	0.902713	
-0.768740	-1.080045	-0.111584	0.241473	-0.860798	1.813990	0.718113	-0.616680	-0.500281	0.905465	
-0.771513	-1.084073	-0.123117	0.233859	-0.864077	1.822908	0.728514	-0.641644	-0.499788	0.908156	
-0.774360	-1.088093	-0.135060	0.226139	-0.867482	1.831662	0.739182	-0.667417	-0.499308	0.910805	
-0.777298	-1.092122	-0.147418	0.218318	-0.871015	1.840276	0.750113	-0.693994	-0.498860	0.913429	
-0.780342	-1.096178	-0.160189	0.210402	-0.874676	1.848773	0.761301	-0.721361	-0.498465	0.916043	
-0.783508	-1.100278	-0.173372	0.202397	-0.878466	1.857177	0.772737	-0.749502	-0.498143	0.918665	
-0.786812	-1.104436	-0.186962	0.194309	-0.882386	1.865507	0.784412	-0.778394	-0.497913	0.921308	
-0.790271	-1.108667	-0.200950	0.186146	-0.886434	1.873783	0.796318	-0.808011	-0.497796	0.923987	
-0.793902	-1.112984	-0.215324	0.177914	-0.890611	1.882023	0.808442	-0.838320	-0.497811	0.926714	
-0.797722	-1.117400	-0.230069	0.169622	-0.894916	1.890241	0.820772	-0.869282	-0.497977	0.929503	
-0.801747	-1.121926	-0.245164	0.161277	-0.899345	1.898451	0.833293	-0.900854	-0.498312	0.932363	
-0.805994	-1.126569	-0.260588	0.152888	-0.903896	1.906664	0.845993	-0.932988	-0.498834	0.935304	
-0.810477	-1.131338	-0.276315	0.144463	-0.908567	1.914887	0.858854	-0.965632	-0.499560	0.938333	
-0.815213	-1.136238	-0.292316	0.136012	-0.913354	1.923125	0.871861	-0.998729	-0.500505	0.941458	
-0.820215	-1.141273	-0.308560	0.127543	-0.918252	1.931383	0.884997	-1.032220	-0.501684	0.944684	
-0.825497	-1.146443	-0.325013	0.119064	-0.923257	1.939658	0.898244	-1.066043	-0.503110	0.948012	
-0.831070	-1.151748	-0.341641	0.110586	-0.928363	1.947948	0.911584	-1.100134	-0.504794	0.951447	
-0.836946	-1.157185	-0.358408	0.102116	-0.933566	1.956249	0.925001	-1.134427	-0.506747	0.954986	
-0.843132	-1.162750	-0.375279	0.093664	-0.938858	1.964550	0.938475	-1.168857	-0.508977	0.958630	
-0.849637	-1.168434	-0.392219	0.085238	-0.944234	1.972842	0.951990	-1.203360	-0.511490	0.962375	
-0.856467	-1.174229	-0.409192	0.076847	-0.949687	1.981111	0.965528	-1.237870	-0.514292	0.966216	
-0.863626	-1.180124	-0.426167	0.068499	-0.955210	1.989342	0.979072	-1.272326	-0.517386	0.970147	
-0.871116	-1.186107	-0.443112	0.060201	-0.960797	1.997518	0.992606	-1.306667	-0.520772	0.974162	
-0.878939	-1.192163	-0.459997	0.051962	-0.966440	2.005622	1.006114	-1.340835	-0.524450	0.978253	
-0.887092	-1.198278	-0.476795	0.043788	-0.972132	2.013634	1.019582	-1.374775	-0.528418	0.982409	
-0.895574	-1.204434	-0.493482	0.035687	-0.977866	2.021533	1.032994	-1.408435	-0.532672	0.986621	
-0.904379	-1.210617	-0.510034	0.027665	-0.983635	2.029300	1.046338	-1.441766	-0.537207	0.990878	
-0.913503	-1.216807	-0.526430	0.019728	-0.989433	2.036914	1.059601	-1.474724	-0.542015	0.995168	
-0.922936	-1.222987	-0.542652	0.011883	-0.995252	2.044355	1.072770	-1.507266	-0.547088	0.999482	
-0.932672	-1.229141	-0.558683	0.004133	-1.001086	2.051604	1.085836	-1.539355	-0.552418	1.003806	
-0.942700	-1.235249	-0.574508	-0.003514	-1.006929	2.058643	1.098787	-1.570956	-0.557994	1.008129	
-0.953009	-1.241297	-0.590113	-0.011056	-1.012775	2.065454	1.111614	-1.602038	-0.563805	1.012440	
-0.963587	-1.247267	-0.605484	-0.018486	-1.018617	2.072020	1.124308	-1.632572	-0.569839	1.016728	
-0.974422	-1.253143	-0.620612	-0.025802	-1.024449	2.078329	1.136861	-1.662533	-0.576084	1.020981	
-0.985501	-1.258912	-0.635487	-0.032999	-1.030267	2.084367	1.149266	-1.691900	-0.582526	1.025190	
-0.996809	-1.264559	-0.650098	-0.040074	-1.036064	2.090123	1.161516	-1.720653	-0.589154	1.029344	
-1.008333	-1.270073	-0.664437	-0.047024	-1.041837	2.095588	1.173604	-1.748774	-0.595953	1.033434	
-1.020059	-1.275442	-0.678498	-0.053845	-1.047579	2.100754	1.185526	-1.776251	-0.602910	1.037452	
-1.031971	-1.280656	-0.692274	-0.060536	-1.053286	2.105615	1.197276	-1.803071	-0.610012	1.041390	
-1.044055	-1.285705	-0.705759	-0.067093	-1.058955	2.110169	1.208849	-1.829223	-0.617245	1.045241	
-1.056297	-1.290583	-0.718947	-0.073514	-1.064581	2.114411	1.220243	-1.854700	-0.624597	1.048999	
-1.068682	-1.295283	-0.731833	-0.079798	-1.070159	2.118343	1.231452	-1.879497	-0.632054	1.052657	
-1.081195	-1.299799	-0.744415	-0.085943	-1.075688	2.121964	1.242475	-1.903608	-0.639603	1.056211	
-1.093823	-1.304128	-0.756687	-0.091947	-1.081162	2.125277	1.253310	-1.927031	-0.647233	1.059658	
-1.106551	-1.308266	-0.768649	-0.097809	-1.086579	2.128285	1.263952	-1.949765	-0.654930	1.062992	
-1.119366	-1.312211	-0.780296	-0.103529	-1.091936	2.130994	1.274403	-1.971810	-0.662685	1.066212	
-1.132255	-1.315963	-0.791628	-0.109105	-1.097230	2.133409	1.284659	-1.993168	-0.670485	1.069315	
-1.145206	-1.319521	-0.802643	-0.114538	-1.102460	2.135537	1.294720	-2.013841	-0.678321	1.072300	
-1.158205	-1.322887	-0.813341	-0.119825	-1.107621	2.137387	1.304585	-2.033834	-0.686181	1.075166	
-1.171242	-1.326060	-0.823721	-0.124969	-1.112713	2.138966	1.314255	-2.053151	-0.694057	1.077912	
-1.184306	-1.329045	-0.833784	-0.129968	-1.117733	2.140284	1.323730	-2.071798	-0.701939	1.080539	
-1.197384	-1.331843	-0.843531	-0.134824	-1.122680	2.141351	1.333009	-2.089784	-0.709819	1.083046	
-1.210469	-1.334458	-0.852963	-0.139535	-1.127553	2.142177	1.342094	-2.107115	-0.717688	1.085436	
-1.223549	-1.336894	-0.862083	-0.144105	-1.132349	2.142773	1.350985	-2.123800	-0.725540	1.087709	
-1.236616	-1.339156	-0.870892	-0.148532	-1.137068	2.143148	1.359685	-2.139849	-0.733367	1.089867	
-1.249661	-1.341247	-0.879393	-0.152820	-1.141708	2.143316	1.368193	-2.155273	-0.741162	1.091913	
-1.262677	-1.343174	-0.887590	-0.156967	-1.146269	2.143286	1.376513	-2.170081	-0.748920	1.093847	
-1.275655	-1.344942	-0.895487	-0.160978	-1.150751	2.143069	1.384645	-2.184287	-0.756635	1.095674	
-1.288589	-1.346555	-0.903086	-0.164852	-1.155152	2.142678	1.392592	-2.197901	-0.764302	1.097395	
-1.301473	-1.348020	-0.910393	-0.168592	-1.159472	2.142123	1.400357	-2.210937	-0.771917	1.099013	
-1.314300	-1.349343	-0.917413	-0.172200	-1.163711	2.141415	1.407940	-2.223407	-0.779474	1.100532	
-1.327065	-1.350529	-0.924150	-0.175677	-1.167869	2.140566	1.415346	-2.235325	-0.786971	1.101955	
-1.339763	-1.351585	-0.930610	-0.179027	-1.171946	2.139584	1.422576	-2.246706	-0.794404	1.103285	
-1.352389	-1.352515	-0.936798	-0.182252	-1.175942	2.138482	1.429634	-2.257562	-0.801770	1.104524	
-1.364939	-1.353327	-0.942721	-0.185353	-1.179857	2.137269	1.436522	-2.267910	-0.809066	1.105677	
-1.377409	-1.354026	-0.948385	-0.188335	-1.183691	2.135955	1.443243	-2.277763	-0.816290	1.106747	
-1.389795	-1.354617	-0.953795	-0.191199	-1.187446	2.134549	1.449800	-2.287136	-0.823440	1.107737	
-1.402095	-1.355106	-0.958959	-0.193948	-1.191120	2.133061	1.456197	-2.296044	-0.830514	1.108650	
-1.414305	-1.355499	-0.963883	-0.196586	-1.194716	2.131500	1.462436	-2.304503	-0.837511	1.109490	
-1.426424	-1.355801	-0.968573	-0.199115	-1.198234	2.129873	1.468521	-2.312528	-0.844429	1.110260	
-1.438448	-1.356017	-0.973038	-0.201538	-1.201675	2.128189	1.474454	-2.320135	-0.851268	1.110962	
-1.450375	-1.356152	-0.977284	-0.203858	-1.205039	2.126455	1.480240	-2.327337	-0.858026	1.111601	
-1.462205	-1.356211	-0.981317	-0.206078	-1.208327	2.124680	1.485881	-2.334152	-0.864703	1.112178	
-1.473935	-1.356198	-0.985146	-0.208203	-1.211541	2.122869	1.491381	-2.340593	-0.871299	1.112698	
-1.485564	-1.356119	-0.988778	-0.210234	-1.214682	2.121031	1.496743	-2.346677	-0.877814	1.113162	
-1.497091	-1.355977	-0.992218	-0.212174	-1.217750	2.119170	1.501971	-2.352418	-0.884246	1.113574	
-1.508514	-1.355776	-0.995476	-0.214028	-1.220748	2.117292	1.507067	-2.357831	-0.890597	1.113936	
-1.519834	-1.355520	-0.998558	-0.215798	-1.223675	2.115404	1.512036	-2.362931	-0.896866	1.114251	
-1.531049	-1.355213	-1.001471	-0.217488	-1.226534	2.113510	1.516879	-2.367732	-0.903055	1.114520	
-1.542159	-1.354859	-1.004222	-0.219100	-1.229325	2.111616	1.521602	-2.372249	-0.909162	1.114747	
-1.553163	-1.354460	-1.006818	-0.220638	-1.232051	2.109725	1.526206	-2.376496	-0.915189	1.114933	
-1.564062	-1.354020	-1.009266	-0.222104	-1.234712	2.107842	1.530696	-2.380487	-0.921136	1.115081	
-1.574854	-1.353541	-1.011574	-0.223502	-1.237310	2.105970	1.535074	-2.384235	-0.927004	1.115193	
-1.585541	-1.353027	-1.013748	-0.224835	-1.239847	2.104115	1.539343	-2.387754	-0.932794	1.115270	
-1.596121	-1.352479	-1.015793	-0.226105	-1.242323	2.102277	1.543507	-2.391057	-0.938506	1.115314	
-1.606595	-1.351901	-1.017718	-0.227317	-1.244740	2.100462	1.547569	-2.394156	-0.944141	1.115326	
-1.616963	-1.351295	-1.019529	-0.228471	-1.247101	2.098671	1.551532	-2.397063	-0.949699	1.115310	
-1.627226	-1.350662	-1.021231	-0.229572	-1.249405	2.096907	1.555399	-2.399792	-0.955182	1.115265	
-1.637382	-1.350004	-1.022830	-0.230621	-1.251656	2.095172	1.559173	-2.402353	-0.960591	1.115193	
-1.647434	-1.349324	-1.024333	-0.231622	-1.253853	2.093468	1.562857	-2.404758	-0.965927	1.115097	
-1.657381	-1.348623	-1.025746	-0.232576	-1.255999	2.091798	1.566453	-2.407018	-0.971190	1.114975	
-1.667223	-1.347903	-1.027073	-0.233487	-1.258096	2.090162	1.569964	-2.409143	-0.976381	1.114831	
-1.676962	-1.347165	-1.028320	-0.234357	-1.260144	2.088562	1.573394	-2.411144	-0.981501	1.114665	
-1.686597	-1.346410	-1.029493	-0.235188	-1.262146	2.087000	1.576745	-2.413030	-0.986553	1.114478	
-1.696129	-1.345639	-1.030597	-0.235982	-1.264102	2.085477	1.580019	-2.414811	-0.991535	1.114271	
-1.705558	-1.344855	-1.031635	-0.236742	-1.266015	2.083993	1.583220	-2.416496	-0.996450	1.114045	
-1.714886	-1.344057	-1.032614	-0.237469	-1.267885	2.082549	1.586349	-2.418093	-1.001298	1.113801	
-1.724113	-1.343246	-1.033537	-0.238165	-1.269713	2.081146	1.589409	-2.419612	-1.006081	1.113540	
-1.733239	-1.342425	-1.034408	-0.238832	-1.271502	2.079785	1.592402	-2.421058	-1.010799	1.113261	
-1.742266	-1.341593	-1.035233	-0.239473	-1.273253	2.078466	1.595332	-2.422441	-1.015454	1.112967	
-1.751193	-1.340751	-1.036013	-0.240088	-1.274967	2.077190	1.598199	-2.423767	-1.020046	1.112657	
-1.760023	-1.339900	-1.036754	-0.240680	-1.276645	2.075956	1.601006	-2.425042	-1.024577	1.112333	
-1.768754	-1.339041	-1.037459	-0.241249	-1.278289	2.074765	1.603756	-2.426274	-1.029048	1.111994	
-1.777389	-1.338174	-1.038131	-0.241798	-1.279899	2.073617	1.606450	-2.427467	-1.033459	1.111642	
-1.785929	-1.337300	-1.038772	-0.242327	-1.281477	2.072512	1.609091	-2.428627	-1.037813	1.111277	
-1.794373	-1.336419	-1.039387	-0.242839	-1.283024	2.071450	1.611679	-2.429760	-1.042109	1.110900	
-1.802723	-1.335532	-1.039978	-0.243334	-1.284542	2.070431	1.614218	-2.430871	-1.046349	1.110510	
-1.810980	-1.334640	-1.040546	-0.243813	-1.286031	2.069454	1.616709	-2.431963	-1.050534	1.110110	
-1.819145	-1.333742	-1.041096	-0.244277	-1.287492	2.068521	1.619153	-2.433041	-1.054666	1.109698	
-1.827218	-1.332840	-1.041629	-0.244728	-1.288927	2.067629	1.621553	-2.434109	-1.058744	1.109276	
-1.835202	-1.331933	-1.042147	-0.245166	-1.290336	2.066780	1.623910	-2.435170	-1.062771	1.108843	
-1.843096	-1.331023	-1.042652	-0.245593	-1.291720	2.065972	1.626225	-2.436228	-1.066747	1.108401	
-1.850901	-1.330108	-1.043145	-0.246009	-1.293080	2.065206	1.628499	-2.437285	-1.070674	1.107950	
-1.858620	-1.329191	-1.043630	-0.246414	-1.294418	2.064481	1.630736	-2.438344	-1.074551	1.107490	
-1.866252	-1.328271	-1.044107	-0.246811	-1.295733	2.063797	1.632934	-2.439407	-1.078382	1.107022	
-1.873800	-1.327349	-1.044577	-0.247198	-1.297027	2.063153	1.635097	-2.440477	-1.082165	1.106546	
-1.881263	-1.326424	-1.045042	-0.247578	-1.298300	2.062550	1.637225	-2.441556	-1.085904	1.106062	
-1.888644	-1.325498	-1.045503	-0.247949	-1.299554	2.061986	1.639320	-2.442645	-1.089597	1.105571	
-1.895943	-1.324570	-1.045961	-0.248314	-1.300788	2.061460	1.641382	-2.443745	-1.093248	1.105073	
-1.903161	-1.323640	-1.046417	-0.248672	-1.302004	2.060974	1.643412	-2.444859	-1.096856	1.104569	
-1.910299	-1.322710	-1.046873	-0.249025	-1.303202	2.060526	1.645413	-2.445987	-1.100422	1.104058	
-1.917359	-1.321779	-1.047328	-0.249371	-1.304383	2.060115	1.647384	-2.447130	-1.103948	1.103542	
-1.924342	-1.320848	-1.047783	-0.249712	-1.305547	2.059742	1.649326	-2.448288	-1.107435	1.103020	
-1.931249	-1.319917	-1.048240	-0.250049	-1.306695	2.059405	1.651242	-2.449464	-1.110883	1.102493	
-1.938081	-1.318985	-1.048698	-0.250380	-1.307827	2.059105	1.653130	-2.450657	-1.114293	1.101962	
-1.944839	-1.318054	-1.049159	-0.250707	-1.308944	2.058840	1.654993	-2.451867	-1.117666	1.101426	
-1.951524	-1.317124	-1.049622	-0.251030	-1.310046	2.058611	1.656832	-2.453095	-1.121004	1.100886	
-1.958137	-1.316194	-1.050088	-0.251350	-1.311135	2.058416	1.658645	-2.454341	-1.124307	1.100341	
-1.964681	-1.315266	-1.050557	-0.251665	-1.312209	2.058256	1.660436	-2.455605	-1.127576	1.099794	
-1.971154	-1.314338	-1.051030	-0.251977	-1.313270	2.058129	1.662203	-2.456887	-1.130812	1.099243	
-1.977560	-1.313412	-1.051506	-0.252286	-1.314317	2.058035	1.663949	-2.458188	-1.134015	1.098689	
-1.983898	-1.312488	-1.051987	-0.252591	-1.315352	2.057974	1.665673	-2.459506	-1.137187	1.098133	
-1.990171	-1.311565	-1.052471	-0.252894	-1.316375	2.057944	1.667376	-2.460842	-1.140328	1.097573	
-1.996378	-1.310644	-1.052960	-0.253193	-1.317386	2.057946	1.669059	-2.462196	-1.143439	1.097012	
-2.002522	-1.309726	-1.053452	-0.253490	-1.318385	2.057979	1.670722	-2.463567	-1.146521	1.096449	
-2.008603	-1.308809	-1.053949	-0.253784	-1.319372	2.058043	1.672365	-2.464955	-1.149574	1.095884	
-2.014622	-1.307895	-1.054450	-0.254076	-1.320348	2.058136	1.673990	-2.466360	-1.152600	1.095317	
-2.020580	-1.306983	-1.054956	-0.254365	-1.321313	2.058259	1.675597	-2.467781	-1.155598	1.094749	
-2.026478	-1.306074	-1.055465	-0.254651	-1.322268	2.058410	1.677186	-2.469217	-1.158570	1.094180	
-2.032318	-1.305168	-1.055979	-0.254935	-1.323212	2.058589	1.678757	-2.470669	-1.161516	1.093610	
-2.038100	-1.304265	-1.056496	-0.255217	-1.324145	2.058796	1.680311	-2.472136	-1.164436	1.093039	
-2.043825	-1.303364	-1.057018	-0.255496	-1.325069	2.059031	1.681849	-2.473617	-1.167333	1.092468	
-2.049495	-1.302467	-1.057543	-0.255774	-1.325983	2.059291	1.683370	-2.475112	-1.170205	1.091896	
-2.055109	-1.301573	-1.058072	-0.256048	-1.326887	2.059578	1.684875	-2.476621	-1.173053	1.091324	
-2.060670	-1.300682	-1.058605	-0.256321	-1.327782	2.059890	1.686365	-2.478142	-1.175879	1.090751	
-2.066177	-1.299794	-1.059141	-0.256591	-1.328667	2.060228	1.687839	-2.479676	-1.178682	1.090179	
-2.071633	-1.298910	-1.059681	-0.256860	-1.329543	2.060589	1.689299	-2.481221	-1.181463	1.089607	
-2.077037	-1.298029	-1.060223	-0.257126	-1.330411	2.060975	1.690744	-2.482778	-1.184223	1.089036	
-2.082390	-1.297152	-1.060769	-0.257390	-1.331269	2.061384	1.692175	-2.484346	-1.186962	1.088465	
-2.087694	-1.296278	-1.061318	-0.257651	-1.332119	2.061816	1.693591	-2.485925	-1.189680	1.087894	
-2.092949	-1.295408	-1.061869	-0.257911	-1.332960	2.062271	1.694994	-2.487513	-1.192378	1.087324	
-2.098156	-1.294541	-1.062423	-0.258168	-1.333792	2.062747	1.696383	-2.489111	-1.195057	1.086755	
-2.103315	-1.293678	-1.062979	-0.258424	-1.334617	2.063245	1.697759	-2.490718	-1.197716	1.086187	
-2.108428	-1.292819	-1.063537	-0.258677	-1.335433	2.063764	1.699122	-2.492333	-1.200356	1.085619	
-2.113496	-1.291964	-1.064098	-0.258928	-1.336241	2.064303	1.700472	-2.493956	-1.202977	1.085053	
-2.118518	-1.291113	-1.064660	-0.259176	-1.337041	2.064862	1.701810	-2.495588	-1.205580	1.084488	
-2.123496	-1.290265	-1.065224	-0.259423	-1.337834	2.065441	1.703135	-2.497226	-1.208166	1.083924	
-2.128430	-1.289421	-1.065790	-0.259668	-1.338618	2.066039	1.704448	-2.498871	-1.210733	1.083362	
-2.133321	-1.288582	-1.066357	-0.259910	-1.339395	2.066655	1.705748	-2.500523	-1.213283	1.082801	
-2.138170	-1.287746	-1.066926	-0.260150	-1.340165	2.067290	1.707038	-2.502181	-1.215816	1.082241	
-2.142977	-1.286914	-1.067495	-0.260388	-1.340927	2.067943	1.708315	-2.503844	-1.218333	1.081683	
-2.147743	-1.286086	-1.068066	-0.260624	-1.341682	2.068612	1.709581	-2.505513	-1.220832	1.081126	
-2.152468	-1.285262	-1.068637	-0.260858	-1.342429	2.069299	1.710836	-2.507187	-1.223316	1.080571	
-2.157154	-1.284441	-1.069209	-0.261089	-1.343169	2.070002	1.712080	-2.508866	-1.225783	1.080018	
-2.161800	-1.283625	-1.069782	-0.261319	-1.343903	2.070722	1.713313	-2.510549	-1.228235	1.079466	
-2.166407	-1.282813	-1.070355	-0.261546	-1.344629	2.071457	1.714536	-2.512236	-1.230671	1.078917	
-2.170977	-1.282005	-1.070928	-0.261771	-1.345349	2.072207	1.715748	-2.513927	-1.233091	1.078369	
-2.175509	-1.281200	-1.071502	-0.261994	-1.346061	2.072973	1.716949	-2.515622	-1.235497	1.077823	
-2.180003	-1.280400	-1.072075	-0.262215	-1.346767	2.073753	1.718140	-2.517320	-1.237887	1.077278	
-2.184461	-1.279604	-1.072649	-0.262433	-1.347467	2.074547	1.719322	-2.519021	-1.240262	1.076736	
-2.188883	-1.278811	-1.073222	-0.262650	-1.348160	2.075355	1.720493	-2.520724	-1.242623	1.076196	
-2.193269	-1.278023	-1.073795	-0.262864	-1.348846	2.076176	1.721654	-2.522431	-1.244969	1.075658	
-2.197620	-1.277239	-1.074368	-0.263076	-1.349526	2.077011	1.722806	-2.524139	-1.247301	1.075122	
-2.201937	-1.276458	-1.074940	-0.263286	-1.350200	2.077859	1.723949	-2.525850	-1.249619	1.074587	
-2.206219	-1.275682	-1.075512	-0.263494	-1.350868	2.078718	1.725082	-2.527563	-1.251922	1.074055	
-2.210468	-1.274910	-1.076083	-0.263699	-1.351529	2.079590	1.726206	-2.529278	-1.254212	1.073525	
-2.214683	-1.274141	-1.076653	-0.263903	-1.352185	2.080474	1.727321	-2.530994	-1.256488	1.072998	
-2.218865	-1.273377	-1.077222	-0.264104	-1.352834	2.081370	1.728427	-2.532712	-1.258750	1.072472	
-2.223015	-1.272616	-1.077791	-0.264304	-1.353478	2.082276	1.729524	-2.534431	-1.260999	1.071949	
-2.227133	-1.271860	-1.078358	-0.264501	-1.354116	2.083194	1.730613	-2.536152	-1.263234	1.071427	
-2.231219	-1.271107	-1.078924	-0.264696	-1.354748	2.084122	1.731693	-2.537873	-1.265456	1.070908	
-2.235273	-1.270359	-1.079490	-0.264889	-1.355374	2.085060	1.732764	-2.539596	-1.267665	1.070392	
-2.239297	-1.269614	-1.080054	-0.265079	-1.355995	2.086009	1.733828	-2.541319	-1.269860	1.069877	
-2.243291	-1.268873	-1.080616	-0.265268	-1.356610	2.086967	1.734883	-2.543043	-1.272043	1.069365	
-2.247254	-1.268137	-1.081178	-0.265455	-1.357220	2.087935	1.735930	-2.544768	-1.274212	1.068855	
-2.251187	-1.267404	-1.081738	-0.265640	-1.357824	2.088912	1.736969	-2.546493	-1.276369	1.068348	
-2.255091	-1.266675	-1.082297	-0.265822	-1.358423	2.089898	1.738001	-2.548219	-1.278513	1.067842	
-2.258966	-1.265950	-1.082854	-0.266003	-1.359017	2.090893	1.739024	-2.549945	-1.280644	1.067340	
-2.262812	-1.265229	-1.083410	-0.266181	-1.359606	2.091896	1.740041	-2.551671	-1.282763	1.066839	
-2.266630	-1.264512	-1.083964	-0.266358	-1.360190	2.092907	1.741049	-2.553398	-1.284869	1.066341	
-2.270420	-1.263799	-1.084516	-0.266532	-1.360768	2.093927	1.742051	-2.555124	-1.286963	1.065845	
-2.274181	-1.263090	-1.085067	-0.266705	-1.361342	2.094954	1.743045	-2.556851	-1.289045	1.065352	
-2.277916	-1.262385	-1.085616	-0.266876	-1.361911	2.095989	1.744032	-2.558578	-1.291114	1.064861	
-2.281623	-1.261684	-1.086164	-0.267044	-1.362475	2.097031	1.745012	-2.560305	-1.293171	1.064372	
-2.285303	-1.260986	-1.086710	-0.267211	-1.363034	2.098080	1.745985	-2.562032	-1.295216	1.063886	
-2.288957	-1.260293	-1.087254	-0.267376	-1.363589	2.099136	1.746952	-2.563758	-1.297249	1.063403	
-2.292584	-1.259603	-1.087796	-0.267539	-1.364139	2.100199	1.747911	-2.565485	-1.299270	1.062921	
-2.296186	-1.258918	-1.088336	-0.267700	-1.364684	2.101268	1.748864	-2.567211	-1.301279	1.062443	
-2.299762	-1.258236	-1.088875	-0.267859	-1.365225	2.102344	1.749811	-2.568937	-1.303276	1.061967	
-2.303312	-1.257559	-1.089411	-0.268016	-1.365762	2.103425	1.750751	-2.570663	-1.305261	1.061493	
-2.306837	-1.256885	-1.089946	-0.268171	-1.366294	2.104513	1.751685	-2.572388	-1.307235	1.061022	
-2.310338	-1.256215	-1.090479	-0.268325	-1.366822	2.105606	1.752613	-2.574114	-1.309197	1.060553	
-2.313813	-1.255550	-1.091010	-0.268477	-1.367346	2.106705	1.753534	-2.575838	-1.311147	1.060087	
-2.317265	-1.254888	-1.091539	-0.268627	-1.367865	2.107809	1.754450	-2.577563	-1.313086	1.059623	
-2.320692	-1.254230	-1.092066	-0.268775	-1.368380	2.108919	1.755359	-2.579287	-1.315013	1.059162	
-2.324096	-1.253576	-1.092591	-0.268921	-1.368892	2.110033	1.756263	-2.581010	-1.316929	1.058704	
-2.327475	-1.252926	-1.093114	-0.269066	-1.369399	2.111152	1.757161	-2.582733	-1.318834	1.058248	
-2.330832	-1.252280	-1.093635	-0.269209	-1.369902	2.112276	1.758054	-2.584455	-1.320727	1.057794	
-2.334165	-1.251638	-1.094154	-0.269350	-1.370402	2.113405	1.758941	-2.586177	-1.322609	1.057343	
-2.337476	-1.251000	-1.094671	-0.269489	-1.370898	2.114538	1.759822	-2.587899	-1.324480	1.056895	
-2.340764	-1.250366	-1.095186	-0.269627	-1.371389	2.115675	1.760698	-2.589620	-1.326339	1.056450	
-2.344029	-1.249736	-1.095699	-0.269763	-1.371878	2.116816	1.761568	-2.591340	-1.328188	1.056007	
-2.347272	-1.249110	-1.096210	-0.269898	-1.372362	2.117961	1.762434	-2.593059	-1.330025	1.055566	
-2.350493	-1.248488	-1.096719	-0.270030	-1.372843	2.119110	1.763294	-2.594778	-1.331852	1.055129	
-2.353693	-1.247870	-1.097226	-0.270161	-1.373320	2.120263	1.764149	-2.596497	-1.333668	1.054694	
-2.356871	-1.247256	-1.097730	-0.270291	-1.373794	2.121419	1.764999	-2.598214	-1.335472	1.054261	
-2.360028	-1.246646	-1.098233	-0.270419	-1.374265	2.122578	1.765845	-2.599931	-1.337266	1.053831	
-2.363163	-1.246040	-1.098733	-0.270545	-1.374732	2.123741	1.766685	-2.601647	-1.339050	1.053404	
-2.366278	-1.245438	-1.099232	-0.270670	-1.375195	2.124907	1.767521	-2.603363	-1.340822	1.052980	
-2.369372	-1.244840	-1.099728	-0.270793	-1.375656	2.126076	1.768352	-2.605077	-1.342584	1.052558	
-2.372446	-1.244246	-1.100222	-0.270914	-1.376113	2.127247	1.769178	-2.606791	-1.344335	1.052139	
-2.375499	-1.243656	-1.100715	-0.271034	-1.376567	2.128422	1.770000	-2.608505	-1.346076	1.051723	
-2.378532	-1.243071	-1.101205	-0.271153	-1.377017	2.129599	1.770817	-2.610217	-1.347806	1.051309	
-2.381545	-1.242489	-1.101693	-0.271270	-1.377465	2.130779	1.771629	-2.611928	-1.349526	1.050899	
-2.384539	-1.241911	-1.102178	-0.271385	-1.377909	2.131961	1.772438	-2.613639	-1.351236	1.050490	
-2.387513	-1.241338	-1.102662	-0.271499	-1.378351	2.133145	1.773242	-2.615349	-1.352935	1.050085	
-2.390468	-1.240768	-1.103144	-0.271611	-1.378789	2.134332	1.774042	-2.617058	-1.354623	1.049682	
-2.393404	-1.240203	-1.103623	-0.271723	-1.379225	2.135521	1.774837	-2.618766	-1.356302	1.049283	
-2.396320	-1.239641	-1.104101	-0.271832	-1.379657	2.136711	1.775629	-2.620473	-1.357970	1.048886	
-2.399218	-1.239084	-1.104576	-0.271940	-1.380087	2.137904	1.776416	-2.622179	-1.359629	1.048491	
-2.402098	-1.238531	-1.105049	-0.272047	-1.380514	2.139098	1.777200	-2.623884	-1.361277	1.048100	
-2.404959	-1.237982	-1.105520	-0.272152	-1.380938	2.140295	1.777980	-2.625588	-1.362915	1.047711	
-2.407802	-1.237437	-1.105989	-0.272256	-1.381360	2.141492	1.778755	-2.627291	-1.364543	1.047325	
-2.410626	-1.236896	-1.106456	-0.272359	-1.381778	2.142692	1.779527	-2.628993	-1.366161	1.046942	
-2.413433	-1.236360	-1.106921	-0.272460	-1.382194	2.143892	1.780295	-2.630694	-1.367770	1.046562	
-2.416222	-1.235827	-1.107383	-0.272559	-1.382608	2.145095	1.781059	-2.632394	-1.369368	1.046184	
-2.418994	-1.235299	-1.107844	-0.272658	-1.383019	2.146298	1.781820	-2.634093	-1.370957	1.045809	
-2.421748	-1.234775	-1.108302	-0.272755	-1.383427	2.147502	1.782577	-2.635791	-1.372536	1.045438	
-2.424485	-1.234255	-1.108758	-0.272851	-1.383832	2.148708	1.783330	-2.637488	-1.374105	1.045069	
-2.427204	-1.233739	-1.109213	-0.272945	-1.384236	2.149915	1.784080	-2.639183	-1.375665	1.044702	
-2.429907	-1.233227	-1.109665	-0.273038	-1.384636	2.151122	1.784827	-2.640878	-1.377215	1.044339	
-2.432593	-1.232719	-1.110115	-0.273130	-1.385035	2.152331	1.785570	-2.642571	-1.378756	1.043979	
-2.435263	-1.232216	-1.110562	-0.273220	-1.385431	2.153540	1.786309	-2.644263	-1.380287	1.043621	
-2.437916	-1.231717	-1.111008	-0.273310	-1.385824	2.154750	1.787046	-2.645954	-1.381808	1.043266	
-2.440552	-1.231221	-1.111452	-0.273398	-1.386215	2.155961	1.787779	-2.647643	-1.383321	1.042914	
-2.443173	-1.230731	-1.111893	-0.273484	-1.386604	2.157172	1.788508	-2.649331	-1.384824	1.042565	
-2.445777	-1.230244	-1.112333	-0.273570	-1.386991	2.158384	1.789235	-2.651018	-1.386317	1.042219	
-2.448366	-1.229761	-1.112770	-0.273654	-1.387375	2.159596	1.789958	-2.652704	-1.387802	1.041876	
-2.450939	-1.229283	-1.113205	-0.273737	-1.387757	2.160808	1.790679	-2.654388	-1.389277	1.041535	
-2.453496	-1.228809	-1.113638	-0.273819	-1.388137	2.162021	1.791396	-2.656071	-1.390743	1.041198	
-2.456038	-1.228339	-1.114069	-0.273899	-1.388515	2.163234	1.792110	-2.657753	-1.392200	1.040863	
-2.458564	-1.227873	-1.114498	-0.273979	-1.388891	2.164448	1.792821	-2.659433	-1.393648	1.040532	
-2.461076	-1.227412	-1.114925	-0.274057	-1.389264	2.165661	1.793529	-2.661111	-1.395087	1.040203	
-2.463572	-1.226954	-1.115350	-0.274134	-1.389636	2.166875	1.794234	-2.662789	-1.396517	1.039877	
-2.466053	-1.226501	-1.115773	-0.274210	-1.390005	2.168088	1.794937	-2.664465	-1.397938	1.039554	
-2.468520	-1.226052	-1.116193	-0.274284	-1.390373	2.169301	1.795636	-2.666139	-1.399350	1.039234	
-2.470971	-1.225607	-1.116612	-0.274358	-1.390738	2.170515	1.796333	-2.667812	-1.400753	1.038917	
-2.473409	-1.225167	-1.117029	-0.274430	-1.391102	2.171728	1.797026	-2.669483	-1.402148	1.038602	
-2.475831	-1.224731	-1.117443	-0.274501	-1.391463	2.172941	1.797717	-2.671153	-1.403534	1.038291	
-2.478240	-1.224299	-1.117855	-0.274571	-1.391823	2.174153	1.798406	-2.672821	-1.404911	1.037982	
-2.480634	-1.223871	-1.118266	-0.274640	-1.392180	2.175366	1.799091	-2.674488	-1.406280	1.037677	
-2.483015	-1.223447	-1.118674	-0.274708	-1.392536	2.176578	1.799774	-2.676153	-1.407639	1.037374	
-2.485381	-1.223027	-1.119080	-0.274775	-1.392890	2.177789	1.800455	-2.677816	-1.408991	1.037075	
-2.487734	-1.222612	-1.119484	-0.274840	-1.393242	2.179000	1.801132	-2.679478	-1.410334	1.036778	
-2.490072	-1.222201	-1.119886	-0.274905	-1.393592	2.180211	1.801808	-2.681138	-1.411668	1.036484	
-2.492398	-1.221794	-1.120286	-0.274968	-1.393941	2.181421	1.802480	-2.682796	-1.412994	1.036193	
-2.494710	-1.221391	-1.120684	-0.275031	-1.394288	2.182630	1.803150	-2.684453	-1.414312	1.035905	
-2.497008	-1.220993	-1.121080	-0.275092	-1.394633	2.183839	1.803818	-2.686108	-1.415622	1.035620	
-2.499293	-1.220599	-1.121474	-0.275152	-1.394976	2.185047	1.804483	-2.687761	-1.416923	1.035337	
-2.501565	-1.220209	-1.121866	-0.275212	-1.395317	2.186254	1.805146	-2.689413	-1.418216	1.035058	
-2.503824	-1.219823	-1.122256	-0.275270	-1.395657	2.187460	1.805806	-2.691062	-1.419500	1.034782	
-2.506070	-1.219441	-1.122644	-0.275327	-1.395995	2.188666	1.806464	-2.692710	-1.420777	1.034508	
-2.508303	-1.219063	-1.123030	-0.275383	-1.396331	2.189871	1.807120	-2.694356	-1.422045	1.034237	
-2.510524	-1.218690	-1.123414	-0.275438	-1.396666	2.191074	1.807773	-2.696000	-1.423306	1.033970	
-2.512732	-1.218321	-1.123796	-0.275492	-1.396999	2.192277	1.808424	-2.697643	-1.424558	1.033705	
-2.514927	-1.217956	-1.124176	-0.275545	-1.397331	2.193479	1.809072	-2.699283	-1.425803	1.033443	
-2.517110	-1.217595	-1.124553	-0.275598	-1.397661	2.194680	1.809719	-2.700922	-1.427039	1.033184	
-2.519281	-1.217238	-1.124929	-0.275649	-1.397989	2.195879	1.810363	-2.702558	-1.428268	1.032928	
-2.521439	-1.216885	-1.125303	-0.275699	-1.398316	2.197078	1.811005	-2.704193	-1.429489	1.032675	
-2.523586	-1.216537	-1.125675	-0.275748	-1.398642	2.198275	1.811645	-2.705826	-1.430702	1.032424	
-2.525720	-1.216193	-1.126045	-0.275796	-1.398965	2.199472	1.812282	-2.707457	-1.431907	1.032177	
-2.527842	-1.215852	-1.126413	-0.275843	-1.399288	2.200667	1.812918	-2.709085	-1.433105	1.031932	
-2.529953	-1.215516	-1.126779	-0.275890	-1.399609	2.201861	1.813551	-2.710712	-1.434295	1.031690	
-2.532051	-1.215184	-1.127143	-0.275935	-1.399928	2.203053	1.814182	-2.712337	-1.435477	1.031452	
-2.534139	-1.214856	-1.127505	-0.275979	-1.400246	2.204244	1.814812	-2.713960	-1.436652	1.031216	
-2.536214	-1.214533	-1.127865	-0.276023	-1.400562	2.205434	1.815439	-2.715580	-1.437819	1.030983	
-2.538278	-1.214213	-1.128223	-0.276065	-1.400877	2.206622	1.816064	-2.717199	-1.438979	1.030752	
-2.540331	-1.213897	-1.128579	-0.276107	-1.401191	2.207809	1.816687	-2.718816	-1.440131	1.030525	
-2.542372	-1.213586	-1.128933	-0.276147	-1.401503	2.208995	1.817308	-2.720430	-1.441276	1.030300	
-2.544402	-1.213278	-1.129286	-0.276187	-1.401814	2.210179	1.817927	-2.722042	-1.442413	1.030079	
-2.546421	-1.212975	-1.129636	-0.276226	-1.402123	2.211361	1.818544	-2.723652	-1.443543	1.029860	
-2.548429	-1.212676	-1.129984	-0.276264	-1.402431	2.212542	1.819159	-2.725260	-1.444666	1.029644	
-2.550426	-1.212380	-1.130331	-0.276301	-1.402738	2.213722	1.819772	-2.726866	-1.445782	1.029430	
-2.552412	-1.212089	-1.130675	-0.276337	-1.403044	2.214900	1.820383	-2.728470	-1.446890	1.029220	
-2.554388	-1.211802	-1.131018	-0.276373	-1.403348	2.216076	1.820993	-2.730071	-1.447991	1.029012	
-2.556352	-1.211518	-1.131359	-0.276407	-1.403650	2.217250	1.821600	-2.731670	-1.449085	1.028807	
-2.558306	-1.211239	-1.131698	-0.276440	-1.403952	2.218423	1.822206	-2.733267	-1.450172	1.028605	
-2.560250	-1.210964	-1.132034	-0.276473	-1.404252	2.219594	1.822810	-2.734862	-1.451252	1.028406	
-2.562183	-1.210692	-1.132370	-0.276505	-1.404551	2.220764	1.823412	-2.736455	-1.452325	1.028210	
-2.564105	-1.210425	-1.132703	-0.276536	-1.404849	2.221931	1.824012	-2.738045	-1.453391	1.028016	
-2.566017	-1.210161	-1.133034	-0.276566	-1.405145	2.223097	1.824610	-2.739633	-1.454450	1.027825	
-2.567919	-1.209902	-1.133363	-0.276595	-1.405441	2.224261	1.825207	-2.741218	-1.455502	1.027637	
-2.569811	-1.209646	-1.133691	-0.276624	-1.405735	2.225423	1.825802	-2.742801	-1.456548	1.027451	
-2.571693	-1.209395	-1.134017	-0.276652	-1.406027	2.226584	1.826395	-2.744382	-1.457586	1.027269	
-2.573564	-1.209147	-1.134340	-0.276678	-1.406319	2.227742	1.826986	-2.745961	-1.458618	1.027089	
-2.575426	-1.208903	-1.134662	-0.276704	-1.406609	2.228899	1.827576	-2.747537	-1.459643	1.026912	
-2.577278	-1.208663	-1.134982	-0.276730	-1.406899	2.230053	1.828164	-2.749111	-1.460661	1.026737	
-2.579120	-1.208426	-1.135301	-0.276754	-1.407187	2.231206	1.828750	-2.750682	-1.461673	1.026565	
-2.580952	-1.208194	-1.135617	-0.276778	-1.407474	2.232356	1.829334	-2.752251	-1.462677	1.026396	
-2.582775	-1.207965	-1.135932	-0.276800	-1.407759	2.233505	1.829917	-2.753818	-1.463676	1.026230	
-2.584588	-1.207741	-1.136244	-0.276822	-1.408044	2.234651	1.830498	-2.755382	-1.464668	1.026066	
-2.586391	-1.207520	-1.136555	-0.276844	-1.408328	2.235796	1.831078	-2.756944	-1.465653	1.025905	
-2.588185	-1.207302	-1.136864	-0.276864	-1.408610	2.236938	1.831656	-2.758503	-1.466632	1.025747	
-2.589970	-1.207089	-1.137172	-0.276884	-1.408891	2.238079	1.832232	-2.760060	-1.467604	1.025591	
-2.591745	-1.206879	-1.137477	-0.276903	-1.409172	2.239217	1.832807	-2.761614	-1.468570	1.025438	
-2.593511	-1.206673	-1.137781	-0.276921	-1.409451	2.240353	1.833380	-2.763166	-1.469530	1.025287	
-2.595268	-1.206471	-1.138083	-0.276938	-1.409729	2.241487	1.833952	-2.764716	-1.470483	1.025139	
-2.597016	-1.206273	-1.138383	-0.276955	-1.410006	2.242619	1.834522	-2.766262	-1.471430	1.024994	
-2.598754	-1.206078	-1.138681	-0.276971	-1.410282	2.243748	1.835090	-2.767807	-1.472371	1.024851	
-2.600484	-1.205886	-1.138977	-0.276986	-1.410557	2.244876	1.835657	-2.769348	-1.473306	1.024711	
-2.602204	-1.205699	-1.139272	-0.277000	-1.410831	2.246001	1.836223	-2.770888	-1.474234	1.024574	
-2.603916	-1.205515	-1.139565	-0.277014	-1.411104	2.247124	1.836787	-2.772424	-1.475156	1.024439	
-2.605619	-1.205335	-1.139856	-0.277027	-1.411375	2.248245	1.837349	-2.773958	-1.476072	1.024306	
-2.607313	-1.205158	-1.140146	-0.277039	-1.411646	2.249363	1.837910	-2.775490	-1.476983	1.024176	
-2.608999	-1.204985	-1.140433	-0.277051	-1.411916	2.250479	1.838470	-2.777019	-1.477887	1.024049	
-2.610676	-1.204815	-1.140719	-0.277061	-1.412185	2.251593	1.839028	-2.778545	-1.478785	1.023924	
-2.612344	-1.204649	-1.141004	-0.277071	-1.412453	2.252704	1.839584	-2.780069	-1.479677	1.023802	
-2.614004	-1.204487	-1.141286	-0.277081	-1.412720	2.253813	1.840139	-2.781590	-1.480563	1.023682	
-2.615655	-1.204328	-1.141567	-0.277090	-1.412986	2.254920	1.840693	-2.783108	-1.481443	1.023565	
-2.617298	-1.204172	-1.141846	-0.277098	-1.413251	2.256024	1.841245	-2.784624	-1.482318	1.023450	
-2.618932	-1.204020	-1.142123	-0.277105	-1.413515	2.257126	1.841796	-2.786137	-1.483186	1.023338	
-2.620559	-1.203872	-1.142399	-0.277111	-1.413778	2.258226	1.842345	-2.787647	-1.484049	1.023228	
-2.622177	-1.203727	-1.142672	-0.277117	-1.414040	2.259323	1.842894	-2.789155	-1.484906	1.023120	
-2.623786	-1.203585	-1.142945	-0.277123	-1.414301	2.260418	1.843440	-2.790660	-1.485757	1.023015	
-2.625388	-1.203447	-1.143215	-0.277127	-1.414561	2.261510	1.843985	-2.792163	-1.486603	1.022912	
-2.626982	-1.203312	-1.143484	-0.277131	-1.414821	2.262600	1.844529	-2.793662	-1.487443	1.022812	
-2.628567	-1.203180	-1.143751	-0.277134	-1.415079	2.263687	1.845072	-2.795159	-1.488277	1.022714	
-2.630145	-1.203052	-1.144016	-0.277137	-1.415337	2.264772	1.845613	-2.796654	-1.489106	1.022619	
-2.631715	-1.202927	-1.144280	-0.277139	-1.415593	2.265854	1.846153	-2.798145	-1.489929	1.022526	
-2.633277	-1.202806	-1.144542	-0.277140	-1.415849	2.266934	1.846692	-2.799634	-1.490747	1.022435	
-2.634831	-1.202688	-1.144803	-0.277141	-1.416104	2.268011	1.847229	-2.801120	-1.491559	1.022346	
-2.636377	-1.202573	-1.145061	-0.277141	-1.416358	2.269086	1.847765	-2.802603	-1.492366	1.022260	
-2.637916	-1.202461	-1.145319	-0.277140	-1.416611	2.270158	1.848300	-2.804084	-1.493167	1.022176	
-2.639447	-1.202352	-1.145574	-0.277139	-1.416863	2.271227	1.848833	-2.805562	-1.493963	1.022095	
-2.640970	-1.202247	-1.145828	-0.277137	-1.417115	2.272294	1.849365	-2.807037	-1.494754	1.022015	
-2.642486	-1.202145	-1.146080	-0.277134	-1.417365	2.273359	1.849896	-2.808509	-1.495539	1.021939	
-2.643994	-1.202046	-1.146331	-0.277131	-1.417615	2.274420	1.850425	-2.809978	-1.496319	1.021864	
-2.645495	-1.201950	-1.146580	-0.277128	-1.417864	2.275479	1.850954	-2.811445	-1.497094	1.021791	
-2.646988	-1.201857	-1.146827	-0.277123	-1.418112	2.276536	1.851481	-2.812909	-1.497863	1.021721	
-2.648475	-1.201768	-1.147073	-0.277118	-1.418360	2.277590	1.852007	-2.814370	-1.498628	1.021653	
-2.649953	-1.201681	-1.147317	-0.277113	-1.418606	2.278641	1.852531	-2.815828	-1.499387	1.021587	
-2.651425	-1.201598	-1.147559	-0.277106	-1.418852	2.279690	1.853055	-2.817283	-1.500141	1.021524	
-2.652889	-1.201517	-1.147800	-0.277100	-1.419097	2.280736	1.853577	-2.818736	-1.500890	1.021462	
-2.654347	-1.201440	-1.148040	-0.277092	-1.419341	2.281779	1.854098	-2.820186	-1.501634	1.021403	
-2.655797	-1.201366	-1.148277	-0.277084	-1.419584	2.282820	1.854618	-2.821632	-1.502373	1.021346	
-2.657240	-1.201294	-1.148514	-0.277076	-1.419826	2.283857	1.855136	-2.823076	-1.503106	1.021291	
-2.658676	-1.201226	-1.148748	-0.277067	-1.420068	2.284893	1.855654	-2.824518	-1.503835	1.021238	
-2.660105	-1.201160	-1.148981	-0.277057	-1.420309	2.285925	1.856170	-2.825956	-1.504559	1.021187	
-2.661527	-1.201098	-1.149213	-0.277047	-1.420549	2.286955	1.856685	-2.827391	-1.505278	1.021138	
-2.662942	-1.201038	-1.149443	-0.277036	-1.420789	2.287982	1.857199	-2.828824	-1.505992	1.021092	
-2.664350	-1.200982	-1.149671	-0.277025	-1.421027	2.289006	1.857712	-2.830254	-1.506701	1.021047	
-2.665752	-1.200928	-1.149898	-0.277013	-1.421265	2.290028	1.858223	-2.831681	-1.507406	1.021005	
-2.667147	-1.200877	-1.150123	-0.277000	-1.421503	2.291046	1.858734	-2.833104	-1.508105	1.020964	
-2.668535	-1.200828	-1.150347	-0.276987	-1.421739	2.292062	1.859243	-2.834525	-1.508800	1.020926	
-2.669916	-1.200783	-1.150570	-0.276973	-1.421975	2.293076	1.859751	-2.835944	-1.509490	1.020889	
-2.671291	-1.200740	-1.150790	-0.276959	-1.422210	2.294086	1.860259	-2.837359	-1.510176	1.020855	
-2.672659	-1.200700	-1.151010	-0.276945	-1.422444	2.295094	1.860765	-2.838771	-1.510856	1.020822	
-2.674021	-1.200663	-1.151227	-0.276929	-1.422678	2.296099	1.861270	-2.840181	-1.511533	1.020792	
-2.675376	-1.200629	-1.151444	-0.276914	-1.422911	2.297101	1.861773	-2.841587	-1.512204	1.020764	
-2.676725	-1.200597	-1.151659	-0.276897	-1.423143	2.298100	1.862276	-2.842991	-1.512871	1.020737	
-2.678067	-1.200568	-1.151872	-0.276880	-1.423374	2.299097	1.862778	-2.844391	-1.513533	1.020712	
-2.679403	-1.200541	-1.152084	-0.276863	-1.423605	2.300090	1.863279	-2.845789	-1.514191	1.020690	
-2.680733	-1.200518	-1.152294	-0.276845	-1.423835	2.301081	1.863778	-2.847184	-1.514844	1.020669	
-2.682056	-1.200496	-1.152503	-0.276827	-1.424064	2.302069	1.864277	-2.848576	-1.515493	1.020650	
-2.683373	-1.200478	-1.152710	-0.276808	-1.424293	2.303055	1.864774	-2.849965	-1.516137	1.020633	
-2.684684	-1.200462	-1.152916	-0.276789	-1.424521	2.304037	1.865271	-2.851351	-1.516777	1.020618	
-2.685988	-1.200448	-1.153121	-0.276769	-1.424748	2.305017	1.865766	-2.852734	-1.517413	1.020604	
-2.687287	-1.200437	-1.153324	-0.276748	-1.424975	2.305993	1.866260	-2.854114	-1.518044	1.020593	
-2.688579	-1.200429	-1.153525	-0.276727	-1.425201	2.306967	1.866754	-2.855491	-1.518671	1.020583	
-2.689866	-1.200423	-1.153726	-0.276706	-1.425426	2.307938	1.867246	-2.856865	-1.519293	1.020575	
-2.691146	-1.200419	-1.153924	-0.276684	-1.425651	2.308906	1.867737	-2.858237	-1.519911	1.020569	
-2.692420	-1.200418	-1.154122	-0.276662	-1.425875	2.309872	1.868228	-2.859605	-1.520525	1.020565	
-2.693689	-1.200419	-1.154318	-0.276639	-1.426099	2.310834	1.868717	-2.860970	-1.521135	1.020562	
-2.694951	-1.200423	-1.154512	-0.276616	-1.426321	2.311794	1.869205	-2.862333	-1.521741	1.020561	
-2.696208	-1.200429	-1.154705	-0.276592	-1.426544	2.312751	1.869693	-2.863692	-1.522342	1.020562	
-2.697458	-1.200438	-1.154897	-0.276568	-1.426765	2.313704	1.870179	-2.865049	-1.522939	1.020565	
-2.698703	-1.200448	-1.155088	-0.276543	-1.426986	2.314655	1.870664	-2.866402	-1.523532	1.020569	
-2.699942	-1.200461	-1.155276	-0.276518	-1.427206	2.315603	1.871149	-2.867753	-1.524121	1.020575	
-2.701176	-1.200477	-1.155464	-0.276492	-1.427426	2.316549	1.871632	-2.869100	-1.524706	1.020583	
-2.702404	-1.200495	-1.155650	-0.276466	-1.427645	2.317491	1.872115	-2.870445	-1.525287	1.020592	
-2.703626	-1.200514	-1.155835	-0.276439	-1.427863	2.318430	1.872596	-2.871786	-1.525864	1.020603	
-2.704842	-1.200537	-1.156019	-0.276412	-1.428081	2.319367	1.873077	-2.873125	-1.526437	1.020616	
-2.706053	-1.200561	-1.156201	-0.276385	-1.428298	2.320300	1.873556	-2.874461	-1.527006	1.020630	
-2.707258	-1.200588	-1.156381	-0.276357	-1.428515	2.321231	1.874035	-2.875793	-1.527571	1.020646	
-2.708458	-1.200616	-1.156561	-0.276329	-1.428731	2.322159	1.874513	-2.877123	-1.528131	1.020663	
-2.709652	-1.200647	-1.156739	-0.276300	-1.428946	2.323084	1.874990	-2.878449	-1.528689	1.020682	
-2.710841	-1.200680	-1.156916	-0.276270	-1.429161	2.324006	1.875466	-2.879773	-1.529242	1.020703	
-2.712025	-1.200715	-1.157091	-0.276241	-1.429375	2.324925	1.875941	-2.881094	-1.529791	1.020725	
-2.713203	-1.200753	-1.157265	-0.276211	-1.429589	2.325841	1.876415	-2.882412	-1.530337	1.020749	
-2.714375	-1.200792	-1.157438	-0.276180	-1.429802	2.326755	1.876888	-2.883726	-1.530879	1.020774	
-2.715543	-1.200833	-1.157610	-0.276149	-1.430015	2.327665	1.877360	-2.885038	-1.531417	1.020801	
-2.716705	-1.200877	-1.157780	-0.276118	-1.430227	2.328572	1.877832	-2.886347	-1.531951	1.020829	
-2.717862	-1.200922	-1.157949	-0.276086	-1.430438	2.329477	1.878302	-2.887653	-1.532481	1.020859	
-2.719013	-1.200969	-1.158116	-0.276054	-1.430649	2.330379	1.878772	-2.888955	-1.533008	1.020890	
-2.720159	-1.201019	-1.158283	-0.276021	-1.430859	2.331278	1.879241	-2.890255	-1.533531	1.020922	
-2.721301	-1.201070	-1.158448	-0.275988	-1.431069	2.332173	1.879709	-2.891552	-1.534051	1.020957	
-2.722437	-1.201123	-1.158611	-0.275955	-1.431278	2.333066	1.880176	-2.892846	-1.534567	1.020992	
-2.723568	-1.201178	-1.158774	-0.275921	-1.431487	2.333956	1.880642	-2.894137	-1.535079	1.021029	
-2.724694	-1.201235	-1.158935	-0.275887	-1.431695	2.334843	1.881107	-2.895424	-1.535587	1.021067	
-2.725814	-1.201294	-1.159095	-0.275852	-1.431903	2.335728	1.881572	-2.896709	-1.536092	1.021107	
-2.726930	-1.201355	-1.159254	-0.275817	-1.432110	2.336609	1.882036	-2.897991	-1.536594	1.021148	
-2.728041	-1.201418	-1.159411	-0.275782	-1.432316	2.337487	1.882498	-2.899270	-1.537092	1.021191	
-2.729147	-1.201482	-1.159567	-0.275746	-1.432522	2.338363	1.882960	-2.900546	-1.537587	1.021235	
-2.730248	-1.201548	-1.159722	-0.275710	-1.432728	2.339235	1.883421	-2.901819	-1.538078	1.021280	
-2.731344	-1.201616	-1.159876	-0.275673	-1.432932	2.340105	1.883882	-2.903089	-1.538565	1.021327	
-2.732435	-1.201686	-1.160029	-0.275636	-1.433137	2.340972	1.884341	-2.904356	-1.539049	1.021374	
-2.733522	-1.201757	-1.160180	-0.275599	-1.433341	2.341836	1.884800	-2.905620	-1.539530	1.021424	
-2.734603	-1.201831	-1.160330	-0.275561	-1.433544	2.342696	1.885258	-2.906881	-1.540008	1.021474	
-2.735680	-1.201905	-1.160479	-0.275523	-1.433747	2.343554	1.885715	-2.908139	-1.540482	1.021526	
-2.736752	-1.201982	-1.160627	-0.275485	-1.433949	2.344410	1.886171	-2.909394	-1.540952	1.021579	
-2.737820	-1.202060	-1.160773	-0.275446	-1.434151	2.345262	1.886626	-2.910646	-1.541420	1.021633	
-2.738882	-1.202140	-1.160918	-0.275407	-1.434353	2.346111	1.887081	-2.911895	-1.541884	1.021689	
-2.739941	-1.202222	-1.161062	-0.275367	-1.434553	2.346957	1.887535	-2.913141	-1.542345	1.021745	
-2.740994	-1.202305	-1.161205	-0.275327	-1.434754	2.347801	1.887988	-2.914384	-1.542802	1.021803	
-2.742043	-1.202390	-1.161347	-0.275287	-1.434954	2.348642	1.888440	-2.915624	-1.543256	1.021862	
-2.743087	-1.202476	-1.161488	-0.275247	-1.435153	2.349479	1.888891	-2.916861	-1.543708	1.021923	
-2.744127	-1.202564	-1.161627	-0.275206	-1.435352	2.350314	1.889342	-2.918095	-1.544155	1.021984	
-2.745162	-1.202653	-1.161765	-0.275164	-1.435550	2.351146	1.889792	-2.919326	-1.544600	1.022047	
-2.746192	-1.202744	-1.161903	-0.275123	-1.435748	2.351975	1.890241	-2.920555	-1.545042	1.022111	
-2.747218	-1.202836	-1.162039	-0.275081	-1.435946	2.352801	1.890690	-2.921780	-1.545480	1.022176	
-2.748240	-1.202930	-1.162173	-0.275039	-1.436143	2.353624	1.891137	-2.923002	-1.545916	1.022242	
-2.749257	-1.203025	-1.162307	-0.274996	-1.436339	2.354445	1.891584	-2.924221	-1.546348	1.022309	
-2.750270	-1.203122	-1.162440	-0.274953	-1.436535	2.355262	1.892030	-2.925438	-1.546777	1.022378	
-2.751279	-1.203220	-1.162571	-0.274910	-1.436731	2.356077	1.892476	-2.926651	-1.547203	1.022447	
-2.752283	-1.203320	-1.162701	-0.274866	-1.436926	2.356888	1.892920	-2.927862	-1.547626	1.022518	
-2.753283	-1.203421	-1.162831	-0.274822	-1.437121	2.357697	1.893364	-2.929069	-1.548046	1.022589	
-2.754278	-1.203523	-1.162959	-0.274778	-1.437315	2.358503	1.893807	-2.930274	-1.548463	1.022662	
-2.755270	-1.203627	-1.163086	-0.274733	-1.437509	2.359306	1.894250	-2.931475	-1.548877	1.022736	
-2.756257	-1.203732	-1.163212	-0.274688	-1.437702	2.360107	1.894692	-2.932674	-1.549289	1.022811	
-2.757240	-1.203839	-1.163336	-0.274643	-1.437895	2.360904	1.895133	-2.933870	-1.549697	1.022887	
-2.758218	-1.203947	-1.163460	-0.274598	-1.438087	2.361699	1.895573	-2.935062	-1.550102	1.022963	
-2.759193	-1.204056	-1.163583	-0.274552	-1.438279	2.362490	1.896012	-2.936252	-1.550505	1.023041	
-2.760163	-1.204166	-1.163704	-0.274506	-1.438471	2.363279	1.896451	-2.937439	-1.550904	1.023120	
-2.761129	-1.204277	-1.163825	-0.274459	-1.438662	2.364065	1.896889	-2.938623	-1.551301	1.023200	
-2.762092	-1.204390	-1.163944	-0.274413	-1.438853	2.364848	1.897327	-2.939804	-1.551695	1.023281	
-2.763050	-1.204504	-1.164063	-0.274366	-1.439043	2.365628	1.897763	-2.940982	-1.552086	1.023363	
-2.764004	-1.204620	-1.164180	-0.274318	-1.439233	2.366406	1.898199	-2.942158	-1.552474	1.023445	
-2.764954	-1.204736	-1.164296	-0.274271	-1.439422	2.367180	1.898635	-2.943330	-1.552859	1.023529	
-2.765900	-1.204854	-1.164411	-0.274223	-1.439611	2.367952	1.899069	-2.944499	-1.553242	1.023614	
-2.766842	-1.204972	-1.164526	-0.274175	-1.439800	2.368721	1.899503	-2.945666	-1.553622	1.023699	
-2.767780	-1.205092	-1.164639	-0.274126	-1.439988	2.369487	1.899937	-2.946829	-1.553999	1.023786	
-2.768714	-1.205213	-1.164751	-0.274078	-1.440175	2.370251	1.900369	-2.947990	-1.554373	1.023873	
-2.769644	-1.205336	-1.164862	-0.274028	-1.440363	2.371011	1.900801	-2.949148	-1.554745	1.023961	
-2.770570	-1.205459	-1.164972	-0.273979	-1.440550	2.371769	1.901232	-2.950302	-1.555114	1.024050	
-2.771493	-1.205583	-1.165081	-0.273930	-1.440736	2.372524	1.901663	-2.951454	-1.555480	1.024140	
-2.772411	-1.205709	-1.165189	-0.273880	-1.440922	2.373276	1.902093	-2.952603	-1.555844	1.024231	
-2.773326	-1.205835	-1.165296	-0.273830	-1.441108	2.374025	1.902522	-2.953750	-1.556205	1.024323	
-2.774237	-1.205963	-1.165402	-0.273779	-1.441293	2.374772	1.902951	-2.954893	-1.556564	1.024415	
-2.775144	-1.206092	-1.165507	-0.273729	-1.441478	2.375515	1.903379	-2.956033	-1.556920	1.024509	
-2.776048	-1.206221	-1.165611	-0.273678	-1.441662	2.376256	1.903806	-2.957171	-1.557273	1.024603	
-2.776947	-1.206352	-1.165714	-0.273626	-1.441846	2.376994	1.904233	-2.958305	-1.557624	1.024698	
-2.777843	-1.206483	-1.165817	-0.273575	-1.442030	2.377730	1.904658	-2.959437	-1.557972	1.024793	
-2.778736	-1.206616	-1.165918	-0.273523	-1.442213	2.378462	1.905084	-2.960566	-1.558318	1.024890	
-2.779624	-1.206749	-1.166018	-0.273471	-1.442396	2.379192	1.905509	-2.961692	-1.558661	1.024987	
-2.780509	-1.206884	-1.166117	-0.273419	-1.442579	2.379919	1.905933	-2.962815	-1.559001	1.025085	
-2.781391	-1.207019	-1.166215	-0.273366	-1.442761	2.380644	1.906356	-2.963936	-1.559339	1.025184	
-2.782268	-1.207156	-1.166313	-0.273314	-1.442942	2.381365	1.906779	-2.965053	-1.559675	1.025284	
-2.783142	-1.207293	-1.166409	-0.273261	-1.443124	2.382084	1.907201	-2.966168	-1.560008	1.025384	
-2.784013	-1.207431	-1.166504	-0.273208	-1.443305	2.382800	1.907622	-2.967280	-1.560339	1.025485	
-2.784880	-1.207570	-1.166599	-0.273154	-1.443485	2.383514	1.908043	-2.968389	-1.560668	1.025587	
-2.785743	-1.207710	-1.166692	-0.273100	-1.443665	2.384224	1.908464	-2.969495	-1.560994	1.025690	
-2.786603	-1.207850	-1.166785	-0.273046	-1.443845	2.384932	1.908883	-2.970598	-1.561317	1.025793	
-2.787460	-1.207992	-1.166876	-0.272992	-1.444025	2.385637	1.909302	-2.971699	-1.561638	1.025897	
-2.788313	-1.208134	-1.166967	-0.272938	-1.444204	2.386340	1.909721	-2.972796	-1.561957	1.026002	
-2.789162	-1.208277	-1.167057	-0.272883	-1.444382	2.387040	1.910139	-2.973891	-1.562274	1.026107	
-2.790009	-1.208421	-1.167146	-0.272828	-1.444561	2.387737	1.910556	-2.974983	-1.562588	1.026213	
-2.790851	-1.208566	-1.167234	-0.272773	-1.444739	2.388431	1.910973	-2.976072	-1.562900	1.026319	
-2.791691	-1.208711	-1.167321	-0.272718	-1.444916	2.389123	1.911389	-2.977159	-1.563210	1.026427	
-2.792527	-1.208857	-1.167407	-0.272662	-1.445094	2.389812	1.911804	-2.978242	-1.563517	1.026535	
-2.793359	-1.209004	-1.167493	-0.272606	-1.445270	2.390498	1.912219	-2.979323	-1.563822	1.026643	
-2.794188	-1.209152	-1.167577	-0.272550	-1.445447	2.391182	1.912633	-2.980401	-1.564125	1.026752	
-2.795014	-1.209300	-1.167660	-0.272494	-1.445623	2.391863	1.913047	-2.981477	-1.564425	1.026862	
-2.795837	-1.209449	-1.167743	-0.272438	-1.445799	2.392541	1.913460	-2.982549	-1.564724	1.026972	
-2.796656	-1.209599	-1.167825	-0.272381	-1.445974	2.393216	1.913872	-2.983619	-1.565020	1.027083	
-2.797472	-1.209750	-1.167906	-0.272324	-1.446150	2.393889	1.914284	-2.984686	-1.565314	1.027195	
-2.798285	-1.209901	-1.167986	-0.272267	-1.446324	2.394560	1.914696	-2.985750	-1.565605	1.027307	
-2.799095	-1.210052	-1.168065	-0.272210	-1.446499	2.395228	1.915106	-2.986812	-1.565895	1.027420	
-2.799901	-1.210205	-1.168143	-0.272152	-1.446673	2.395893	1.915517	-2.987870	-1.566182	1.027533	
-2.800704	-1.210358	-1.168221	-0.272095	-1.446847	2.396555	1.915926	-2.988926	-1.566468	1.027647	
-2.801504	-1.210512	-1.168298	-0.272037	-1.447020	2.397215	1.916335	-2.989980	-1.566751	1.027762	
-2.802301	-1.210666	-1.168373	-0.271979	-1.447193	2.397872	1.916744	-2.991030	-1.567032	1.027877	
-2.803095	-1.210821	-1.168448	-0.271920	-1.447366	2.398527	1.917152	-2.992078	-1.567311	1.027992	
-2.803885	-1.210976	-1.168523	-0.271862	-1.447538	2.399179	1.917559	-2.993123	-1.567587	1.028108	
-2.804673	-1.211132	-1.168596	-0.271803	-1.447710	2.399828	1.917966	-2.994165	-1.567862	1.028225	
-2.805457	-1.211289	-1.168668	-0.271744	-1.447882	2.400475	1.918372	-2.995205	-1.568135	1.028342	
-2.806239	-1.211446	-1.168740	-0.271685	-1.448054	2.401119	1.918778	-2.996242	-1.568405	1.028459	
-2.807017	-1.211604	-1.168811	-0.271626	-1.448225	2.401761	1.919183	-2.997276	-1.568674	1.028577	
-2.807792	-1.211762	-1.168881	-0.271566	-1.448395	2.402400	1.919588	-2.998307	-1.568941	1.028696	
-2.808564	-1.211921	-1.168950	-0.271507	-1.448566	2.403036	1.919992	-2.999336	-1.569205	1.028815	
-2.809334	-1.212080	-1.169019	-0.271447	-1.448736	2.403670	1.920395	-3.000362	-1.569468	1.028935	
-2.810100	-1.212239	-1.169086	-0.271387	-1.448906	2.404302	1.920798	-3.001386	-1.569728	1.029055	
-2.810863	-1.212400	-1.169153	-0.271327	-1.449075	2.404930	1.921201	-3.002406	-1.569987	1.029175	
-2.811623	-1.212560	-1.169219	-0.271266	-1.449244	2.405557	1.921603	-3.003424	-1.570244	1.029296	
-2.812381	-1.212722	-1.169284	-0.271206	-1.449413	2.406180	1.922004	-3.004440	-1.570498	1.029417	
-2.813135	-1.212883	-1.169349	-0.271145	-1.449582	2.406802	1.922405	-3.005453	-1.570751	1.029539	
-2.813887	-1.213045	-1.169413	-0.271084	-1.449750	2.407420	1.922805	-3.006463	-1.571002	1.029661	
-2.814635	-1.213208	-1.169475	-0.271023	-1.449918	2.408037	1.923205	-3.007470	-1.571251	1.029784	
-2.815381	-1.213371	-1.169538	-0.270962	-1.450085	2.408650	1.923604	-3.008475	-1.571498	1.029907	
-2.816124	-1.213534	-1.169599	-0.270900	-1.450253	2.409261	1.924003	-3.009477	-1.571743	1.030031	
-2.816864	-1.213698	-1.169660	-0.270839	-1.450420	2.409870	1.924401	-3.010477	-1.571986	1.030154	
-2.817601	-1.213862	-1.169720	-0.270777	-1.450586	2.410476	1.924799	-3.011474	-1.572228	1.030279	
-2.818335	-1.214026	-1.169779	-0.270715	-1.450753	2.411080	1.925196	-3.012468	-1.572467	1.030403	
-2.819067	-1.214191	-1.169837	-0.270653	-1.450919	2.411681	1.925593	-3.013459	-1.572705	1.030528	
-2.819796	-1.214357	-1.169895	-0.270590	-1.451085	2.412280	1.925989	-3.014449	-1.572941	1.030654	
-2.820522	-1.214522	-1.169952	-0.270528	-1.451250	2.412876	1.926385	-3.015435	-1.573175	1.030780	
-2.821245	-1.214688	-1.170008	-0.270465	-1.451415	2.413470	1.926780	-3.016419	-1.573407	1.030906	
-2.821965	-1.214855	-1.170063	-0.270403	-1.451580	2.414062	1.927175	-3.017400	-1.573637	1.031032	
-2.822683	-1.215021	-1.170118	-0.270340	-1.451745	2.414651	1.927569	-3.018379	-1.573866	1.031159	
-2.823398	-1.215188	-1.170172	-0.270277	-1.451909	2.415237	1.927963	-3.019355	-1.574093	1.031287	
-2.824110	-1.215356	-1.170225	-0.270214	-1.452073	2.415821	1.928356	-3.020328	-1.574318	1.031414	
-2.824820	-1.215523	-1.170278	-0.270150	-1.452237	2.416403	1.928749	-3.021299	-1.574541	1.031542	
-2.825527	-1.215691	-1.170330	-0.270087	-1.452400	2.416982	1.929141	-3.022268	-1.574763	1.031670	
-2.826231	-1.215859	-1.170381	-0.270023	-1.452563	2.417559	1.929533	-3.023234	-1.574983	1.031799	
-2.826933	-1.216028	-1.170431	-0.269959	-1.452726	2.418133	1.929924	-3.024197	-1.575201	1.031928	
-2.827632	-1.216197	-1.170481	-0.269895	-1.452888	2.418705	1.930314	-3.025158	-1.575418	1.032057	
-2.828329	-1.216366	-1.170530	-0.269831	-1.453051	2.419275	1.930705	-3.026116	-1.575632	1.032187	
-2.829022	-1.216535	-1.170578	-0.269767	-1.453213	2.419842	1.931095	-3.027071	-1.575845	1.032317	
-2.829714	-1.216704	-1.170626	-0.269703	-1.453374	2.420407	1.931484	-3.028025	-1.576057	1.032447	
-2.830402	-1.216874	-1.170673	-0.269638	-1.453536	2.420970	1.931873	-3.028975	-1.576267	1.032577	
-2.831089	-1.217044	-1.170719	-0.269573	-1.453697	2.421530	1.932261	-3.029923	-1.576475	1.032708	
-2.831772	-1.217214	-1.170765	-0.269509	-1.453858	2.422088	1.932649	-3.030869	-1.576681	1.032839	
-2.832453	-1.217385	-1.170810	-0.269444	-1.454018	2.422643	1.933036	-3.031812	-1.576886	1.032970	
-2.833132	-1.217555	-1.170854	-0.269379	-1.454179	2.423196	1.933423	-3.032753	-1.577089	1.033102	
-2.833808	-1.217726	-1.170897	-0.269313	-1.454339	2.423747	1.933810	-3.033691	-1.577291	1.033233	
-2.834481	-1.217897	-1.170940	-0.269248	-1.454499	2.424296	1.934196	-3.034626	-1.577491	1.033366	
-2.835152	-1.218068	-1.170983	-0.269183	-1.454658	2.424842	1.934581	-3.035560	-1.577689	1.033498	
-2.835821	-1.218240	-1.171024	-0.269117	-1.454817	2.425386	1.934966	-3.036490	-1.577886	1.033630	
-2.836487	-1.218411	-1.171065	-0.269051	-1.454976	2.425927	1.935351	-3.037418	-1.578081	1.033763	
-2.837151	-1.218583	-1.171105	-0.268986	-1.455135	2.426466	1.935735	-3.038344	-1.578275	1.033896	
-2.837812	-1.218755	-1.171145	-0.268920	-1.455293	2.427003	1.936119	-3.039268	-1.578467	1.034030	
-2.838471	-1.218927	-1.171184	-0.268854	-1.455452	2.427538	1.936502	-3.040188	-1.578657	1.034163	
-2.839127	-1.219099	-1.171223	-0.268787	-1.455609	2.428070	1.936885	-3.041107	-1.578846	1.034297	
-2.839781	-1.219271	-1.171260	-0.268721	-1.455767	2.428600	1.937267	-3.042023	-1.579034	1.034431	
-2.840433	-1.219444	-1.171297	-0.268655	-1.455924	2.429128	1.937649	-3.042936	-1.579220	1.034565	
-2.841082	-1.219616	-1.171334	-0.268588	-1.456082	2.429654	1.938030	-3.043847	-1.579404	1.034699	
-2.841729	-1.219789	-1.171370	-0.268521	-1.456238	2.430177	1.938411	-3.044756	-1.579587	1.034834	
-2.842374	-1.219962	-1.171405	-0.268455	-1.456395	2.430698	1.938792	-3.045662	-1.579768	1.034969	
-2.843016	-1.220135	-1.171440	-0.268388	-1.456551	2.431217	1.939172	-3.046566	-1.579948	1.035103	
-2.843656	-1.220308	-1.171474	-0.268321	-1.456707	2.431734	1.939551	-3.047468	-1.580127	1.035239	
-2.844293	-1.220481	-1.171507	-0.268253	-1.456863	2.432248	1.939931	-3.048367	-1.580304	1.035374	
-2.844929	-1.220654	-1.171540	-0.268186	-1.457019	2.432760	1.940309	-3.049264	-1.580479	1.035509	
-2.845562	-1.220827	-1.171572	-0.268119	-1.457174	2.433270	1.940688	-3.050158	-1.580653	1.035645	
-2.846193	-1.221000	-1.171604	-0.268051	-1.457329	2.433778	1.941066	-3.051050	-1.580826	1.035781	
-2.846821	-1.221174	-1.171635	-0.267984	-1.457484	2.434284	1.941443	-3.051940	-1.580997	1.035917	
-2.847447	-1.221347	-1.171665	-0.267916	-1.457639	2.434787	1.941820	-3.052827	-1.581167	1.036053	
-2.848071	-1.221521	-1.171695	-0.267848	-1.457793	2.435288	1.942197	-3.053712	-1.581335	1.036190	
-2.848693	-1.221694	-1.171724	-0.267781	-1.457947	2.435788	1.942573	-3.054594	-1.581502	1.036326	
-2.849313	-1.221868	-1.171753	-0.267713	-1.458101	2.436284	1.942949	-3.055475	-1.581668	1.036463	
-2.849930	-1.222041	-1.171781	-0.267644	-1.458255	2.436779	1.943324	-3.056353	-1.581832	1.036600	
-2.850545	-1.222215	-1.171808	-0.267576	-1.458408	2.437272	1.943699	-3.057228	-1.581995	1.036737	
-2.851158	-1.222388	-1.171835	-0.267508	-1.458561	2.437762	1.944073	-3.058101	-1.582156	1.036874	
-2.851769	-1.222562	-1.171862	-0.267440	-1.458714	2.438250	1.944447	-3.058972	-1.582316	1.037011	
-2.852378	-1.222736	-1.171887	-0.267371	-1.458866	2.438737	1.944821	-3.059841	-1.582475	1.037148	
-2.852984	-1.222909	-1.171913	-0.267303	-1.459019	2.439221	1.945194	-3.060707	-1.582632	1.037286	
-2.853589	-1.223083	-1.171937	-0.267234	-1.459171	2.439703	1.945567	-3.061571	-1.582788	1.037423	
-2.854191	-1.223257	-1.171961	-0.267165	-1.459323	2.440182	1.945940	-3.062433	-1.582943	1.037561	
-2.854791	-1.223430	-1.171985	-0.267096	-1.459475	2.440660	1.946312	-3.063292	-1.583097	1.037699	
-2.855389	-1.223604	-1.172008	-0.267027	-1.459626	2.441136	1.946683	-3.064150	-1.583249	1.037837	
-2.855985	-1.223778	-1.172030	-0.266958	-1.459777	2.441609	1.947054	-3.065004	-1.583399	1.037975	
-2.856579	-1.223951	-1.172052	-0.266889	-1.459928	2.442081	1.947425	-3.065857	-1.583549	1.038113	
-2.857171	-1.224125	-1.172074	-0.266820	-1.460079	2.442550	1.947795	-3.066707	-1.583697	1.038251	
-2.857760	-1.224298	-1.172095	-0.266751	-1.460230	2.443017	1.948165	-3.067556	-1.583844	1.038390	
-2.858348	-1.224472	-1.172115	-0.266681	-1.460380	2.443483	1.948535	-3.068401	-1.583989	1.038528	
-2.858934	-1.224645	-1.172135	-0.266612	-1.460530	2.443946	1.948904	-3.069245	-1.584134	1.038666	
-2.859517	-1.224819	-1.172154	-0.266542	-1.460680	2.444407	1.949273	-3.070087	-1.584277	1.038805	
-2.860099	-1.224992	-1.172173	-0.266473	-1.460829	2.444866	1.949641	-3.070926	-1.584419	1.038944	
-2.860679	-1.225165	-1.172191	-0.266403	-1.460979	2.445323	1.950009	-3.071763	-1.584559	1.039083	
-2.861256	-1.225338	-1.172208	-0.266333	-1.461128	2.445778	1.950377	-3.072597	-1.584698	1.039221	
-2.861832	-1.225512	-1.172226	-0.266263	-1.461277	2.446231	1.950744	-3.073430	-1.584836	1.039360	
-2.862405	-1.225685	-1.172242	-0.266193	-1.461426	2.446682	1.951111	-3.074260	-1.584973	1.039499	
-2.862977	-1.225858	-1.172258	-0.266123	-1.461574	2.447131	1.951477	-3.075089	-1.585109	1.039638	
-2.863547	-1.226030	-1.172274	-0.266053	-1.461722	2.447578	1.951843	-3.075915	-1.585243	1.039778	
-2.864114	-1.226203	-1.172289	-0.265983	-1.461870	2.448023	1.952209	-3.076738	-1.585377	1.039917	
-2.864680	-1.226376	-1.172304	-0.265912	-1.462018	2.448466	1.952574	-3.077560	-1.585509	1.040056	
-2.865244	-1.226549	-1.172318	-0.265842	-1.462166	2.448907	1.952939	-3.078379	-1.585639	1.040195	
-2.865806	-1.226721	-1.172331	-0.265772	-1.462313	2.449347	1.953303	-3.079197	-1.585769	1.040335	
-2.866366	-1.226894	-1.172344	-0.265701	-1.462460	2.449784	1.953667	-3.080012	-1.585897	1.040474	
-2.866924	-1.227066	-1.172357	-0.265631	-1.462607	2.450219	1.954031	-3.080825	-1.586025	1.040613	
-2.867480	-1.227238	-1.172369	-0.265560	-1.462754	2.450652	1.954394	-3.081636	-1.586151	1.040753	
-2.868034	-1.227410	-1.172381	-0.265489	-1.462901	2.451083	1.954757	-3.082444	-1.586276	1.040892	
-2.868587	-1.227582	-1.172392	-0.265419	-1.463047	2.451513	1.955120	-3.083251	-1.586400	1.041032	
-2.869137	-1.227754	-1.172403	-0.265348	-1.463193	2.451940	1.955482	-3.084055	-1.586522	1.041172	
-2.869686	-1.227926	-1.172413	-0.265277	-1.463339	2.452366	1.955844	-3.084858	-1.586644	1.041311	
-2.870233	-1.228097	-1.172422	-0.265206	-1.463485	2.452789	1.956205	-3.085658	-1.586764	1.041451	
-2.870778	-1.228269	-1.172432	-0.265135	-1.463630	2.453211	1.956566	-3.086456	-1.586883	1.041591	
-2.871321	-1.228440	-1.172440	-0.265064	-1.463776	2.453631	1.956927	-3.087252	-1.587002	1.041730	
-2.871862	-1.228611	-1.172449	-0.264993	-1.463921	2.454048	1.957287	-3.088046	-1.587119	1.041870	
-2.872402	-1.228782	-1.172457	-0.264921	-1.464065	2.454464	1.957647	-3.088838	-1.587235	1.042010	
-2.872940	-1.228953	-1.172464	-0.264850	-1.464210	2.454879	1.958007	-3.089628	-1.587349	1.042149	
-2.873476	-1.229124	-1.172471	-0.264779	-1.464355	2.455291	1.958366	-3.090415	-1.587463	1.042289	
-2.874010	-1.229295	-1.172477	-0.264707	-1.464499	2.455701	1.958725	-3.091201	-1.587576	1.042429	
-2.874542	-1.229465	-1.172483	-0.264636	-1.464643	2.456110	1.959083	-3.091985	-1.587687	1.042569	
-2.875073	-1.229635	-1.172489	-0.264564	-1.464787	2.456516	1.959441	-3.092766	-1.587798	1.042708	
-2.875602	-1.229805	-1.172494	-0.264493	-1.464930	2.456921	1.959799	-3.093546	-1.587907	1.042848	
-2.876129	-1.229975	-1.172499	-0.264421	-1.465074	2.457324	1.960157	-3.094323	-1.588016	1.042988	
-2.876654	-1.230145	-1.172503	-0.264349	-1.465217	2.457725	1.960514	-3.095098	-1.588123	1.043128	
-2.877178	-1.230315	-1.172507	-0.264277	-1.465360	2.458124	1.960870	-3.095872	-1.588229	1.043268	
-2.877700	-1.230484	-1.172510	-0.264206	-1.465503	2.458522	1.961227	-3.096643	-1.588334	1.043407	
-2.878220	-1.230653	-1.172513	-0.264134	-1.465646	2.458917	1.961583	-3.097412	-1.588439	1.043547	
-2.878738	-1.230822	-1.172515	-0.264062	-1.465788	2.459311	1.961938	-3.098180	-1.588542	1.043687	
-2.879255	-1.230991	-1.172517	-0.263990	-1.465930	2.459703	1.962293	-3.098945	-1.588644	1.043826	
-2.879770	-1.231160	-1.172519	-0.263918	-1.466072	2.460094	1.962648	-3.099708	-1.588745	1.043966	
-2.880283	-1.231328	-1.172520	-0.263846	-1.466214	2.460482	1.963003	-3.100470	-1.588845	1.044106	
-2.880795	-1.231496	-1.172521	-0.263774	-1.466356	2.460869	1.963357	-3.101229	-1.588944	1.044245	
-2.881305	-1.231664	-1.172521	-0.263701	-1.466497	2.461254	1.963711	-3.101987	-1.589042	1.044385	
-2.881814	-1.231832	-1.172521	-0.263629	-1.466639	2.461637	1.964065	-3.102742	-1.589139	1.044525	
-2.882320	-1.232000	-1.172521	-0.263557	-1.466780	2.462018	1.964418	-3.103495	-1.589235	1.044664	
-2.882825	-1.232167	-1.172520	-0.263485	-1.466921	2.462398	1.964771	-3.104247	-1.589330	1.044804	
-2.883329	-1.232335	-1.172518	-0.263412	-1.467061	2.462776	1.965123	-3.104996	-1.589424	1.044943	
-2.883831	-1.232502	-1.172517	-0.263340	-1.467202	2.463152	1.965475	-3.105744	-1.589518	1.045083	
-2.884331	-1.232669	-1.172514	-0.263267	-1.467342	2.463526	1.965827	-3.106490	-1.589610	1.045222	
-2.884829	-1.232835	-1.172512	-0.263195	-1.467482	2.463899	1.966179	-3.107233	-1.589701	1.045362	
-2.885326	-1.233002	-1.172509	-0.263122	-1.467622	2.464270	1.966530	-3.107975	-1.589791	1.045501	
-2.885822	-1.233168	-1.172506	-0.263050	-1.467762	2.464639	1.966881	-3.108715	-1.589880	1.045640	
-2.886315	-1.233334	-1.172502	-0.262977	-1.467902	2.465007	1.967231	-3.109453	-1.589969	1.045779	
-2.886808	-1.233499	-1.172498	-0.262904	-1.468041	2.465372	1.967581	-3.110189	-1.590056	1.045919	
-2.887298	-1.233665	-1.172493	-0.262832	-1.468180	2.465736	1.967931	-3.110923	-1.590142	1.046058	
-2.887787	-1.233830	-1.172488	-0.262759	-1.468320	2.466099	1.968280	-3.111655	-1.590228	1.046197	
-2.888275	-1.233995	-1.172483	-0.262686	-1.468458	2.466460	1.968630	-3.112386	-1.590313	1.046336	
-2.888761	-1.234160	-1.172477	-0.262613	-1.468597	2.466819	1.968978	-3.113114	-1.590396	1.046475	
-2.889245	-1.234324	-1.172471	-0.262540	-1.468736	2.467176	1.969327	-3.113841	-1.590479	1.046614	
-2.889728	-1.234489	-1.172465	-0.262467	-1.468874	2.467532	1.969675	-3.114565	-1.590561	1.046753	
-2.890209	-1.234653	-1.172458	-0.262395	-1.469012	2.467886	1.970023	-3.115288	-1.590642	1.046892	
-2.890689	-1.234817	-1.172450	-0.262322	-1.469150	2.468238	1.970370	-3.116009	-1.590722	1.047031	
-2.891167	-1.234980	-1.172443	-0.262249	-1.469288	2.468589	1.970718	-3.116728	-1.590801	1.047169	
-2.891644	-1.235144	-1.172435	-0.262175	-1.469425	2.468938	1.971064	-3.117445	-1.590879	1.047308	
-2.892119	-1.235307	-1.172426	-0.262102	-1.469563	2.469286	1.971411	-3.118161	-1.590956	1.047447	
-2.892593	-1.235469	-1.172418	-0.262029	-1.469700	2.469632	1.971757	-3.118874	-1.591033	1.047585	
-2.893065	-1.235632	-1.172409	-0.261956	-1.469837	2.469976	1.972103	-3.119586	-1.591108	1.047723	
-2.893536	-1.235794	-1.172399	-0.261883	-1.469974	2.470318	1.972449	-3.120296	-1.591183	1.047862	
-2.894006	-1.235956	-1.172389	-0.261810	-1.470111	2.470659	1.972794	-3.121004	-1.591257	1.048000	
-2.894473	-1.236118	-1.172379	-0.261736	-1.470247	2.470999	1.973139	-3.121711	-1.591330	1.048138	
-2.894940	-1.236280	-1.172369	-0.261663	-1.470384	2.471337	1.973483	-3.122415	-1.591402	1.048277	
-2.895405	-1.236441	-1.172358	-0.261590	-1.470520	2.471673	1.973828	-3.123118	-1.591473	1.048415	
-2.895868	-1.236602	-1.172346	-0.261516	-1.470656	2.472008	1.974172	-3.123819	-1.591543	1.048553	
-2.896330	-1.236763	-1.172335	-0.261443	-1.470792	2.472341	1.974515	-3.124518	-1.591613	1.048691	
-2.896791	-1.236923	-1.172323	-0.261370	-1.470928	2.472672	1.974859	-3.125215	-1.591681	1.048828	
-2.897250	-1.237083	-1.172311	-0.261296	-1.471063	2.473002	1.975202	-3.125911	-1.591749	1.048966	
-2.897708	-1.237243	-1.172298	-0.261223	-1.471199	2.473331	1.975544	-3.126604	-1.591816	1.049104	
-2.898164	-1.237403	-1.172285	-0.261149	-1.471334	2.473657	1.975887	-3.127296	-1.591882	1.049241	
-2.898619	-1.237562	-1.172272	-0.261076	-1.471469	2.473983	1.976229	-3.127987	-1.591948	1.049379	
-2.899073	-1.237721	-1.172258	-0.261002	-1.471604	2.474306	1.976571	-3.128675	-1.592012	1.049516	
-2.899525	-1.237880	-1.172244	-0.260928	-1.471738	2.474629	1.976912	-3.129362	-1.592076	1.049654	
-2.899976	-1.238039	-1.172229	-0.260855	-1.471873	2.474949	1.977254	-3.130047	-1.592139	1.049791	
-2.900425	-1.238197	-1.172215	-0.260781	-1.472007	2.475268	1.977594	-3.130730	-1.592201	1.049928	
-2.900873	-1.238355	-1.172200	-0.260708	-1.472141	2.475586	1.977935	-3.131412	-1.592262	1.050065	
-2.901320	-1.238513	-1.172184	-0.260634	-1.472275	2.475902	1.978275	-3.132092	-1.592323	1.050202	
-2.901765	-1.238670	-1.172169	-0.260560	-1.472409	2.476217	1.978615	-3.132770	-1.592382	1.050339	
-2.902209	-1.238827	-1.172153	-0.260486	-1.472543	2.476530	1.978955	-3.133446	-1.592441	1.050476	
-2.902651	-1.238984	-1.172136	-0.260413	-1.472677	2.476842	1.979294	-3.134121	-1.592499	1.050612	
-2.903093	-1.239141	-1.172120	-0.260339	-1.472810	2.477152	1.979633	-3.134794	-1.592557	1.050749	
-2.903533	-1.239297	-1.172103	-0.260265	-1.472943	2.477460	1.979972	-3.135465	-1.592613	1.050885	
-2.903971	-1.239453	-1.172085	-0.260191	-1.473076	2.477768	1.980311	-3.136135	-1.592669	1.051022	
-2.904408	-1.239609	-1.172068	-0.260117	-1.473209	2.478073	1.980649	-3.136803	-1.592724	1.051158	
-2.904844	-1.239764	-1.172050	-0.260044	-1.473342	2.478378	1.980987	-3.137469	-1.592778	1.051294	
-2.905279	-1.239919	-1.172032	-0.259970	-1.473475	2.478680	1.981324	-3.138134	-1.592832	1.051430	
-2.905712	-1.240074	-1.172013	-0.259896	-1.473607	2.478982	1.981662	-3.138797	-1.592884	1.051566	
-2.906144	-1.240229	-1.171994	-0.259822	-1.473739	2.479282	1.981999	-3.139458	-1.592936	1.051702	
-2.906575	-1.240383	-1.171975	-0.259748	-1.473871	2.479580	1.982335	-3.140117	-1.592988	1.051838	
-2.907004	-1.240537	-1.171955	-0.259674	-1.474003	2.479877	1.982672	-3.140775	-1.593038	1.051974	
-2.907433	-1.240690	-1.171936	-0.259600	-1.474135	2.480173	1.983008	-3.141432	-1.593088	1.052109	
-2.907859	-1.240844	-1.171916	-0.259526	-1.474267	2.480467	1.983344	-3.142086	-1.593137	1.052244	
-2.908285	-1.240997	-1.171895	-0.259452	-1.474398	2.480760	1.983679	-3.142739	-1.593185	1.052380	
-2.908709	-1.241149	-1.171874	-0.259378	-1.474530	2.481051	1.984015	-3.143391	-1.593233	1.052515	
-2.909132	-1.241302	-1.171853	-0.259304	-1.474661	2.481341	1.984350	-3.144041	-1.593279	1.052650	
-2.909554	-1.241454	-1.171832	-0.259230	-1.474792	2.481629	1.984684	-3.144689	-1.593325	1.052785	
-2.909975	-1.241606	-1.171811	-0.259156	-1.474923	2.481917	1.985019	-3.145335	-1.593371	1.052920	
-2.910394	-1.241757	-1.171789	-0.259082	-1.475053	2.482202	1.985353	-3.145980	-1.593415	1.053055	
-2.910812	-1.241908	-1.171767	-0.259008	-1.475184	2.482487	1.985687	-3.146624	-1.593459	1.053189	
-2.911229	-1.242059	-1.171744	-0.258934	-1.475314	2.482770	1.986020	-3.147265	-1.593503	1.053324	
-2.911645	-1.242210	-1.171721	-0.258859	-1.475445	2.483051	1.986354	-3.147906	-1.593545	1.053458	
-2.912059	-1.242360	-1.171698	-0.258785	-1.475575	2.483332	1.986687	-3.148544	-1.593587	1.053592	
-2.912472	-1.242510	-1.171675	-0.258711	-1.475705	2.483610	1.987019	-3.149181	-1.593628	1.053726	
-2.912884	-1.242659	-1.171651	-0.258637	-1.475835	2.483888	1.987352	-3.149817	-1.593668	1.053860	
-2.913295	-1.242809	-1.171628	-0.258563	-1.475964	2.484164	1.987684	-3.150451	-1.593708	1.053994	
-2.913705	-1.242958	-1.171603	-0.258489	-1.476094	2.484439	1.988016	-3.151083	-1.593747	1.054128	
-2.914113	-1.243106	-1.171579	-0.258415	-1.476223	2.484713	1.988347	-3.151714	-1.593786	1.054262	
-2.914520	-1.243255	-1.171554	-0.258340	-1.476353	2.484985	1.988679	-3.152343	-1.593823	1.054395	
-2.914926	-1.243403	-1.171529	-0.258266	-1.476482	2.485256	1.989010	-3.152971	-1.593860	1.054529	
-2.915331	-1.243551	-1.171504	-0.258192	-1.476611	2.485525	1.989341	-3.153597	-1.593897	1.054662	
-2.915735	-1.243698	-1.171478	-0.258118	-1.476739	2.485793	1.989671	-3.154222	-1.593932	1.054795	
-2.916138	-1.243845	-1.171453	-0.258043	-1.476868	2.486060	1.990001	-3.154845	-1.593967	1.054928	
-2.916539	-1.243992	-1.171427	-0.257969	-1.476997	2.486326	1.990331	-3.155466	-1.594002	1.055061	
-2.916939	-1.244138	-1.171400	-0.257895	-1.477125	2.486590	1.990661	-3.156086	-1.594035	1.055194	
-2.917338	-1.244285	-1.171374	-0.257821	-1.477253	2.486853	1.990990	-3.156705	-1.594068	1.055326	
-2.917736	-1.244430	-1.171347	-0.257746	-1.477381	2.487115	1.991320	-3.157322	-1.594101	1.055459	
-2.918133	-1.244576	-1.171320	-0.257672	-1.477509	2.487375	1.991648	-3.157937	-1.594132	1.055591	
-2.918529	-1.244721	-1.171292	-0.257598	-1.477637	2.487634	1.991977	-3.158551	-1.594163	1.055723	
-2.918923	-1.244866	-1.171265	-0.257524	-1.477765	2.487892	1.992305	-3.159164	-1.594194	1.055855	
-2.919317	-1.245011	-1.171237	-0.257449	-1.477892	2.488149	1.992633	-3.159775	-1.594224	1.055987	
-2.919709	-1.245155	-1.171209	-0.257375	-1.478020	2.488404	1.992961	-3.160385	-1.594253	1.056119	
-2.920100	-1.245299	-1.171180	-0.257301	-1.478147	2.488658	1.993289	-3.160993	-1.594281	1.056251	
-2.920490	-1.245442	-1.171151	-0.257226	-1.478274	2.488911	1.993616	-3.161600	-1.594309	1.056382	
-2.920879	-1.245586	-1.171123	-0.257152	-1.478401	2.489163	1.993943	-3.162205	-1.594336	1.056514	
-2.921267	-1.245729	-1.171093	-0.257078	-1.478528	2.489413	1.994270	-3.162808	-1.594363	1.056645	
-2.921654	-1.245871	-1.171064	-0.257003	-1.478655	2.489662	1.994596	-3.163411	-1.594389	1.056776	
-2.922039	-1.246013	-1.171034	-0.256929	-1.478781	2.489910	1.994923	-3.164012	-1.594415	1.056907	
-2.922424	-1.246155	-1.171004	-0.256855	-1.478908	2.490156	1.995249	-3.164611	-1.594439	1.057038	
-2.922808	-1.246297	-1.170974	-0.256780	-1.479034	2.490402	1.995574	-3.165209	-1.594464	1.057169	
-2.923190	-1.246438	-1.170944	-0.256706	-1.479160	2.490646	1.995900	-3.165806	-1.594487	1.057299	
-2.923571	-1.246579	-1.170913	-0.256632	-1.479286	2.490889	1.996225	-3.166401	-1.594510	1.057430	
-2.923952	-1.246720	-1.170882	-0.256557	-1.479412	2.491131	1.996550	-3.166994	-1.594532	1.057560	
-2.924331	-1.246860	-1.170851	-0.256483	-1.479538	2.491371	1.996875	-3.167587	-1.594554	1.057690	
-2.924709	-1.247000	-1.170820	-0.256409	-1.479663	2.491611	1.997199	-3.168177	-1.594575	1.057820	
-2.925086	-1.247140	-1.170788	-0.256334	-1.479789	2.491849	1.997523	-3.168767	-1.594596	1.057950	
-2.925462	-1.247279	-1.170757	-0.256260	-1.479914	2.492086	1.997847	-3.169355	-1.594616	1.058080	
-2.925838	-1.247419	-1.170725	-0.256186	-1.480039	2.492322	1.998171	-3.169942	-1.594635	1.058210	
-2.926212	-1.247557	-1.170692	-0.256111	-1.480164	2.492556	1.998494	-3.170527	-1.594654	1.058339	
-2.926585	-1.247696	-1.170660	-0.256037	-1.480289	2.492790	1.998817	-3.171111	-1.594672	1.058468	
-2.926957	-1.247834	-1.170627	-0.255963	-1.480414	2.493022	1.999140	-3.171693	-1.594690	1.058598	
-2.927327	-1.247971	-1.170594	-0.255888	-1.480539	2.493253	1.999463	-3.172274	-1.594707	1.058727	
-2.927697	-1.248109	-1.170561	-0.255814	-1.480664	2.493483	1.999785	-3.172854	-1.594724	1.058855	
-2.928066	-1.248246	-1.170527	-0.255740	-1.480788	2.493712	2.000108	-3.173433	-1.594740	1.058984	
-2.928434	-1.248383	-1.170494	-0.255665	-1.480912	2.493940	2.000429	-3.174010	-1.594755	1.059113	
-2.928801	-1.248519	-1.170460	-0.255591	-1.481036	2.494166	2.000751	-3.174585	-1.594770	1.059241	
-2.929167	-1.248655	-1.170426	-0.255516	-1.481161	2.494392	2.001073	-3.175160	-1.594784	1.059370	
-2.929532	-1.248791	-1.170392	-0.255442	-1.481284	2.494616	2.001394	-3.175732	-1.594798	1.059498	
-2.929896	-1.248926	-1.170357	-0.255368	-1.481408	2.494839	2.001715	-3.176304	-1.594811	1.059626	
-2.930259	-1.249061	-1.170322	-0.255293	-1.481532	2.495061	2.002035	-3.176874	-1.594823	1.059754	
-2.930621	-1.249196	-1.170287	-0.255219	-1.481655	2.495282	2.002356	-3.177443	-1.594835	1.059881	
-2.930982	-1.249331	-1.170252	-0.255145	-1.481779	2.495502	2.002676	-3.178011	-1.594847	1.060009	
-2.931342	-1.249465	-1.170217	-0.255071	-1.481902	2.495720	2.002996	-3.178577	-1.594858	1.060136	
-2.931701	-1.249599	-1.170181	-0.254996	-1.482025	2.495938	2.003316	-3.179142	-1.594868	1.060264	
-2.932059	-1.249732	-1.170146	-0.254922	-1.482148	2.496154	2.003635	-3.179706	-1.594878	1.060391	
-2.932416	-1.249865	-1.170110	-0.254848	-1.482271	2.496370	2.003954	-3.180268	-1.594887	1.060518	
-2.932772	-1.249998	-1.170073	-0.254773	-1.482394	2.496584	2.004273	-3.180830	-1.594896	1.060644	
-2.933128	-1.250130	-1.170037	-0.254699	-1.482517	2.496797	2.004592	-3.181389	-1.594904	1.060771	
-2.933482	-1.250263	-1.170000	-0.254625	-1.482639	2.497009	2.004910	-3.181948	-1.594912	1.060898	
-2.933835	-1.250394	-1.169963	-0.254550	-1.482762	2.497220	2.005229	-3.182505	-1.594919	1.061024	
-2.934188	-1.250526	-1.169926	-0.254476	-1.482884	2.497430	2.005547	-3.183061	-1.594926	1.061150	
-2.934539	-1.250657	-1.169889	-0.254402	-1.483006	2.497639	2.005865	-3.183616	-1.594932	1.061276	
-2.934889	-1.250788	-1.169852	-0.254327	-1.483128	2.497847	2.006182	-3.184169	-1.594938	1.061402	
-2.935239	-1.250918	-1.169814	-0.254253	-1.483250	2.498054	2.006499	-3.184721	-1.594943	1.061528	
-2.935588	-1.251049	-1.169776	-0.254179	-1.483372	2.498259	2.006816	-3.185272	-1.594947	1.061654	
-2.935936	-1.251178	-1.169738	-0.254105	-1.483494	2.498464	2.007133	-3.185821	-1.594952	1.061779	
-2.936282	-1.251308	-1.169700	-0.254030	-1.483615	2.498668	2.007450	-3.186370	-1.594955	1.061904	
-2.936628	-1.251437	-1.169662	-0.253956	-1.483737	2.498870	2.007766	-3.186917	-1.594958	1.062030	
-2.936973	-1.251566	-1.169623	-0.253882	-1.483858	2.499072	2.008082	-3.187463	-1.594961	1.062155	
-2.937317	-1.251695	-1.169584	-0.253808	-1.483979	2.499272	2.008398	-3.188007	-1.594963	1.062279	
-2.937661	-1.251823	-1.169545	-0.253734	-1.484100	2.499472	2.008714	-3.188551	-1.594964	1.062404	
-2.938003	-1.251951	-1.169506	-0.253659	-1.484221	2.499670	2.009029	-3.189093	-1.594965	1.062529	
-2.938344	-1.252078	-1.169467	-0.253585	-1.484342	2.499868	2.009345	-3.189634	-1.594966	1.062653	
-2.938685	-1.252205	-1.169427	-0.253511	-1.484463	2.500064	2.009660	-3.190173	-1.594966	1.062777	
-2.939025	-1.252332	-1.169388	-0.253437	-1.484584	2.500260	2.009974	-3.190712	-1.594966	1.062901	
-2.939363	-1.252459	-1.169348	-0.253363	-1.484704	2.500454	2.010289	-3.191249	-1.594965	1.063025	
-2.939701	-1.252585	-1.169308	-0.253288	-1.484824	2.500648	2.010603	-3.191785	-1.594963	1.063149	
-2.940038	-1.252711	-1.169267	-0.253214	-1.484945	2.500840	2.010917	-3.192320	-1.594962	1.063273	
-2.940375	-1.252837	-1.169227	-0.253140	-1.485065	2.501031	2.011231	-3.192853	-1.594959	1.063396	
-2.940710	-1.252962	-1.169186	-0.253066	-1.485185	2.501222	2.011545	-3.193386	-1.594956	1.063519	
-2.941044	-1.253087	-1.169145	-0.252992	-1.485305	2.501411	2.011858	-3.193917	-1.594953	1.063643	
-2.941378	-1.253211	-1.169104	-0.252918	-1.485425	2.501600	2.012171	-3.194447	-1.594949	1.063766	
-2.941711	-1.253336	-1.169063	-0.252843	-1.485544	2.501787	2.012484	-3.194976	-1.594945	1.063888	
-2.942043	-1.253460	-1.169022	-0.252769	-1.485664	2.501974	2.012797	-3.195504	-1.594941	1.064011	
-2.942374	-1.253583	-1.168980	-0.252695	-1.485783	2.502160	2.013109	-3.196030	-1.594935	1.064134	
-2.942704	-1.253707	-1.168939	-0.252621	-1.485903	2.502344	2.013422	-3.196556	-1.594930	1.064256	
-2.943033	-1.253830	-1.168897	-0.252547	-1.486022	2.502528	2.013734	-3.197080	-1.594924	1.064378	
-2.943362	-1.253952	-1.168855	-0.252473	-1.486141	2.502711	2.014045	-3.197603	-1.594917	1.064500	
-2.943690	-1.254075	-1.168813	-0.252399	-1.486260	2.502892	2.014357	-3.198125	-1.594910	1.064622	
-2.944016	-1.254197	-1.168770	-0.252325	-1.486379	2.503073	2.014668	-3.198645	-1.594903	1.064744	
-2.944342	-1.254318	-1.168728	-0.252251	-1.486498	2.503253	2.014980	-3.199165	-1.594895	1.064866	
-2.944668	-1.254440	-1.168685	-0.252177	-1.486617	2.503432	2.015290	-3.199683	-1.594886	1.064987	
-2.944992	-1.254561	-1.168642	-0.252103	-1.486735	2.503610	2.015601	-3.200201	-1.594878	1.065108	
-2.945316	-1.254681	-1.168599	-0.252029	-1.486854	2.503787	2.015912	-3.200717	-1.594868	1.065229	
-2.945639	-1.254802	-1.168556	-0.251955	-1.486972	2.503963	2.016222	-3.201232	-1.594859	1.065350	
-2.945961	-1.254922	-1.168513	-0.251881	-1.487090	2.504138	2.016532	-3.201746	-1.594848	1.065471	
-2.946282	-1.255042	-1.168469	-0.251807	-1.487208	2.504313	2.016842	-3.202259	-1.594838	1.065592	
-2.946602	-1.255161	-1.168425	-0.251733	-1.487326	2.504486	2.017151	-3.202770	-1.594827	1.065712	
-2.946922	-1.255280	-1.168381	-0.251659	-1.487444	2.504659	2.017461	-3.203281	-1.594815	1.065833	
-2.947241	-1.255399	-1.168337	-0.251585	-1.487562	2.504830	2.017770	-3.203790	-1.594804	1.065953	
-2.947559	-1.255517	-1.168293	-0.251511	-1.487680	2.505001	2.018079	-3.204299	-1.594791	1.066073	
-2.947876	-1.255635	-1.168249	-0.251437	-1.487797	2.505171	2.018388	-3.204806	-1.594779	1.066193	
-2.948192	-1.255753	-1.168204	-0.251363	-1.487915	2.505340	2.018696	-3.205312	-1.594765	1.066312	
-2.948508	-1.255871	-1.168160	-0.251290	-1.488032	2.505508	2.019005	-3.205817	-1.594752	1.066432	
-2.948823	-1.255988	-1.168115	-0.251216	-1.488150	2.505675	2.019313	-3.206321	-1.594738	1.066551	
-2.949137	-1.256105	-1.168070	-0.251142	-1.488267	2.505841	2.019621	-3.206824	-1.594723	1.066671	
-2.949451	-1.256221	-1.168025	-0.251068	-1.488384	2.506007	2.019928	-3.207326	-1.594708	1.066790	
-2.949763	-1.256338	-1.167980	-0.250994	-1.488501	2.506171	2.020236	-3.207826	-1.594693	1.066909	
-2.950075	-1.256454	-1.167934	-0.250920	-1.488618	2.506335	2.020543	-3.208326	-1.594677	1.067027	
-2.950386	-1.256569	-1.167889	-0.250847	-1.488734	2.506498	2.020850	-3.208825	-1.594661	1.067146	
-2.950696	-1.256684	-1.167843	-0.250773	-1.488851	2.506660	2.021157	-3.209322	-1.594645	1.067264	
-2.951006	-1.256799	-1.167797	-0.250699	-1.488968	2.506821	2.021464	-3.209819	-1.594628	1.067383	
-2.951315	-1.256914	-1.167751	-0.250625	-1.489084	2.506981	2.021770	-3.210314	-1.594611	1.067501	
-2.951623	-1.257028	-1.167705	-0.250552	-1.489200	2.507140	2.022077	-3.210808	-1.594593	1.067619	
-2.951930	-1.257142	-1.167659	-0.250478	-1.489317	2.507299	2.022383	-3.211302	-1.594575	1.067737	
-2.952237	-1.257256	-1.167612	-0.250404	-1.489433	2.507456	2.022688	-3.211794	-1.594556	1.067854	
-2.952543	-1.257369	-1.167566	-0.250331	-1.489549	2.507613	2.022994	-3.212285	-1.594537	1.067972	
-2.952848	-1.257482	-1.167519	-0.250257	-1.489665	2.507769	2.023299	-3.212775	-1.594518	1.068089	
-2.953153	-1.257595	-1.167472	-0.250183	-1.489781	2.507925	2.023605	-3.213264	-1.594498	1.068206	
-2.953456	-1.257708	-1.167425	-0.250110	-1.489896	2.508079	2.023910	-3.213753	-1.594478	1.068323	
-2.953759	-1.257820	-1.167378	-0.250036	-1.490012	2.508232	2.024214	-3.214240	-1.594458	1.068440	
-2.954061	-1.257932	-1.167331	-0.249962	-1.490127	2.508385	2.024519	-3.214726	-1.594437	1.068557	
-2.954363	-1.258043	-1.167284	-0.249889	-1.490243	2.508537	2.024823	-3.215211	-1.594415	1.068673	
-2.954664	-1.258154	-1.167236	-0.249815	-1.490358	2.508688	2.025128	-3.215695	-1.594394	1.068790	
-2.954964	-1.258265	-1.167188	-0.249742	-1.490473	2.508838	2.025432	-3.216178	-1.594372	1.068906	
-2.955263	-1.258376	-1.167141	-0.249668	-1.490589	2.508988	2.025735	-3.216660	-1.594349	1.069022	
-2.955562	-1.258486	-1.167093	-0.249595	-1.490704	2.509137	2.026039	-3.217141	-1.594326	1.069138	
-2.955860	-1.258596	-1.167045	-0.249521	-1.490818	2.509284	2.026342	-3.217621	-1.594303	1.069254	
-2.956158	-1.258706	-1.166996	-0.249448	-1.490933	2.509432	2.026646	-3.218100	-1.594280	1.069369	
-2.956454	-1.258815	-1.166948	-0.249374	-1.491048	2.509578	2.026949	-3.218578	-1.594256	1.069485	
-2.956750	-1.258924	-1.166900	-0.249301	-1.491163	2.509723	2.027251	-3.219055	-1.594231	1.069600	
-2.957045	-1.259033	-1.166851	-0.249227	-1.491277	2.509868	2.027554	-3.219531	-1.594207	1.069715	
-2.957340	-1.259141	-1.166802	-0.249154	-1.491392	2.510012	2.027856	-3.220007	-1.594181	1.069830	
-2.957634	-1.259249	-1.166753	-0.249080	-1.491506	2.510155	2.028159	-3.220481	-1.594156	1.069945	
-2.957927	-1.259357	-1.166704	-0.249007	-1.491620	2.510298	2.028461	-3.220954	-1.594130	1.070060	
-2.958220	-1.259464	-1.166655	-0.248934	-1.491734	2.510439	2.028762	-3.221426	-1.594104	1.070174	
-2.958511	-1.259572	-1.166606	-0.248860	-1.491848	2.510580	2.029064	-3.221897	-1.594078	1.070289	
-2.958803	-1.259678	-1.166557	-0.248787	-1.491962	2.510720	2.029365	-3.222368	-1.594051	1.070403	
-2.959093	-1.259785	-1.166507	-0.248714	-1.492076	2.510860	2.029667	-3.222837	-1.594023	1.070517	
-2.959383	-1.259891	-1.166458	-0.248640	-1.492190	2.510998	2.029968	-3.223305	-1.593996	1.070631	
-2.959672	-1.259997	-1.166408	-0.248567	-1.492303	2.511136	2.030268	-3.223773	-1.593968	1.070744	
-2.959961	-1.260103	-1.166358	-0.248494	-1.492417	2.511273	2.030569	-3.224239	-1.593939	1.070858	
-2.960249	-1.260208	-1.166308	-0.248421	-1.492531	2.511410	2.030869	-3.224705	-1.593911	1.070971	
-2.960536	-1.260313	-1.166258	-0.248347	-1.492644	2.511545	2.031170	-3.225170	-1.593882	1.071085	
-2.960822	-1.260418	-1.166208	-0.248274	-1.492757	2.511680	2.031470	-3.225633	-1.593852	1.071198	
-2.961108	-1.260522	-1.166157	-0.248201	-1.492870	2.511814	2.031770	-3.226096	-1.593823	1.071311	
-2.961394	-1.260627	-1.166107	-0.248128	-1.492983	2.511948	2.032069	-3.226558	-1.593793	1.071423	
-2.961678	-1.260730	-1.166056	-0.248055	-1.493096	2.512081	2.032369	-3.227019	-1.593762	1.071536	
-2.961962	-1.260834	-1.166006	-0.247981	-1.493209	2.512213	2.032668	-3.227479	-1.593732	1.071648	
-2.962246	-1.260937	-1.165955	-0.247908	-1.493322	2.512344	2.032967	-3.227938	-1.593700	1.071761	
-2.962528	-1.261040	-1.165904	-0.247835	-1.493435	2.512474	2.033266	-3.228396	-1.593669	1.071873	
-2.962810	-1.261143	-1.165853	-0.247762	-1.493547	2.512604	2.033565	-3.228853	-1.593637	1.071985	
-2.963092	-1.261245	-1.165802	-0.247689	-1.493660	2.512733	2.033863	-3.229310	-1.593605	1.072097	
-2.963373	-1.261347	-1.165751	-0.247616	-1.493772	2.512862	2.034162	-3.229765	-1.593573	1.072208	
-2.963653	-1.261449	-1.165699	-0.247543	-1.493885	2.512989	2.034460	-3.230220	-1.593540	1.072320	
-2.963932	-1.261550	-1.165648	-0.247470	-1.493997	2.513116	2.034758	-3.230673	-1.593507	1.072431	
-2.964211	-1.261652	-1.165596	-0.247397	-1.494109	2.513243	2.035055	-3.231126	-1.593473	1.072542	
-2.964490	-1.261752	-1.165545	-0.247324	-1.494221	2.513368	2.035353	-3.231578	-1.593440	1.072653	
-2.964768	-1.261853	-1.165493	-0.247251	-1.494333	2.513493	2.035650	-3.232029	-1.593406	1.072764	
-2.965045	-1.261953	-1.165441	-0.247178	-1.494445	2.513618	2.035948	-3.232479	-1.593371	1.072875	
-2.965321	-1.262053	-1.165389	-0.247105	-1.494557	2.513741	2.036245	-3.232928	-1.593336	1.072986	
-2.965597	-1.262153	-1.165337	-0.247032	-1.494669	2.513864	2.036542	-3.233377	-1.593301	1.073096	
-2.965873	-1.262252	-1.165285	-0.246960	-1.494780	2.513986	2.036838	-3.233824	-1.593266	1.073206	
-2.966147	-1.262351	-1.165232	-0.246887	-1.494892	2.514108	2.037135	-3.234271	-1.593230	1.073316	
-2.966421	-1.262450	-1.165180	-0.246814	-1.495003	2.514229	2.037431	-3.234717	-1.593194	1.073426	
-2.966695	-1.262549	-1.165128	-0.246741	-1.495115	2.514349	2.037727	-3.235162	-1.593158	1.073536	
-2.966968	-1.262647	-1.165075	-0.246668	-1.495226	2.514468	2.038023	-3.235606	-1.593121	1.073646	
-2.967240	-1.262745	-1.165022	-0.246596	-1.495337	2.514587	2.038319	-3.236049	-1.593084	1.073755	
-2.967512	-1.262843	-1.164969	-0.246523	-1.495448	2.514705	2.038614	-3.236491	-1.593047	1.073865	
-2.967783	-1.262940	-1.164916	-0.246450	-1.495559	2.514823	2.038910	-3.236933	-1.593010	1.073974	
-2.968054	-1.263037	-1.164863	-0.246377	-1.495670	2.514940	2.039205	-3.237374	-1.592972	1.074083	
-2.968324	-1.263134	-1.164810	-0.246305	-1.495781	2.515056	2.039500	-3.237813	-1.592934	1.074192	
-2.968593	-1.263230	-1.164757	-0.246232	-1.495891	2.515172	2.039795	-3.238252	-1.592895	1.074301	
-2.968862	-1.263327	-1.164704	-0.246159	-1.496002	2.515287	2.040089	-3.238690	-1.592856	1.074409	
-2.969130	-1.263422	-1.164650	-0.246087	-1.496113	2.515401	2.040384	-3.239128	-1.592817	1.074518	
-2.969398	-1.263518	-1.164597	-0.246014	-1.496223	2.515515	2.040678	-3.239564	-1.592778	1.074626	
-2.969665	-1.263613	-1.164543	-0.245942	-1.496334	2.515628	2.040972	-3.240000	-1.592738	1.074734	
-2.969932	-1.263708	-1.164490	-0.245869	-1.496444	2.515740	2.041266	-3.240435	-1.592698	1.074842	
-2.970198	-1.263803	-1.164436	-0.245797	-1.496554	2.515852	2.041560	-3.240869	-1.592658	1.074950	
-2.970463	-1.263898	-1.164382	-0.245724	-1.496664	2.515963	2.041854	-3.241302	-1.592617	1.075057	
-2.970728	-1.263992	-1.164328	-0.245652	-1.496774	2.516074	2.042147	-3.241735	-1.592576	1.075165	
-2.970993	-1.264086	-1.164274	-0.245579	-1.496884	2.516184	2.042440	-3.242166	-1.592535	1.075272	
-2.971257	-1.264180	-1.164220	-0.245507	-1.496994	2.516293	2.042733	-3.242597	-1.592494	1.075379	
-2.971520	-1.264273	-1.164166	-0.245434	-1.497104	2.516402	2.043026	-3.243027	-1.592452	1.075486	
-2.971783	-1.264366	-1.164111	-0.245362	-1.497214	2.516510	2.043319	-3.243456	-1.592410	1.075593	
-2.972045	-1.264459	-1.164057	-0.245289	-1.497323	2.516617	2.043611	-3.243885	-1.592368	1.075700	
-2.972306	-1.264551	-1.164002	-0.245217	-1.497433	2.516724	2.043904	-3.244312	-1.592325	1.075807	
-2.972568	-1.264644	-1.163948	-0.245145	-1.497542	2.516830	2.044196	-3.244739	-1.592282	1.075913	
-2.972828	-1.264736	-1.163893	-0.245072	-1.497652	2.516936	2.044488	-3.245165	-1.592239	1.076019	
-2.973088	-1.264827	-1.163838	-0.245000	-1.497761	2.517041	2.044780	-3.245590	-1.592196	1.076125	
-2.973348	-1.264919	-1.163783	-0.244928	-1.497870	2.517146	2.045071	-3.246015	-1.592152	1.076231	
-2.973607	-1.265010	-1.163728	-0.244856	-1.497979	2.517250	2.045363	-3.246439	-1.592108	1.076337	
-2.973865	-1.265101	-1.163673	-0.244783	-1.498088	2.517353	2.045654	-3.246862	-1.592064	1.076443	
-2.974123	-1.265191	-1.163618	-0.244711	-1.498197	2.517456	2.045945	-3.247284	-1.592019	1.076548	
-2.974380	-1.265282	-1.163563	-0.244639	-1.498306	2.517558	2.046236	-3.247705	-1.591974	1.076654	
-2.974637	-1.265372	-1.163508	-0.244567	-1.498415	2.517659	2.046527	-3.248126	-1.591929	1.076759	
-2.974893	-1.265461	-1.163452	-0.244495	-1.498523	2.517760	2.046818	-3.248546	-1.591884	1.076864	
-2.975149	-1.265551	-1.163397	-0.244422	-1.498632	2.517861	2.047108	-3.248965	-1.591838	1.076969	
-2.975404	-1.265640	-1.163341	-0.244350	-1.498741	2.517961	2.047399	-3.249383	-1.591792	1.077074	
-2.975659	-1.265729	-1.163286	-0.244278	-1.498849	2.518060	2.047689	-3.249801	-1.591746	1.077178	
-2.975914	-1.265818	-1.163230	-0.244206	-1.498957	2.518159	2.047979	-3.250218	-1.591700	1.077283	
-2.976167	-1.265906	-1.163174	-0.244134	-1.499066	2.518257	2.048268	-3.250634	-1.591653	1.077387	
-2.976421	-1.265994	-1.163119	-0.244062	-1.499174	2.518354	2.048558	-3.251049	-1.591606	1.077491	
-2.976673	-1.266082	-1.163063	-0.243990	-1.499282	2.518451	2.048847	-3.251464	-1.591559	1.077595	
-2.976926	-1.266170	-1.163007	-0.243918	-1.499390	2.518548	2.049137	-3.251878	-1.591511	1.077699	
-2.977177	-1.266257	-1.162951	-0.243846	-1.499498	2.518644	2.049426	-3.252291	-1.591464	1.077803	
-2.977429	-1.266344	-1.162894	-0.243774	-1.499606	2.518739	2.049715	-3.252703	-1.591416	1.077906	
-2.977679	-1.266431	-1.162838	-0.243702	-1.499714	2.518834	2.050004	-3.253115	-1.591367	1.078010	
-2.977930	-1.266518	-1.162782	-0.243631	-1.499822	2.518928	2.050292	-3.253526	-1.591319	1.078113	
-2.978179	-1.266604	-1.162726	-0.243559	-1.499929	2.519022	2.050581	-3.253936	-1.591270	1.078216	
-2.978429	-1.266690	-1.162669	-0.243487	-1.500037	2.519115	2.050869	-3.254346	-1.591221	1.078319	
-2.978677	-1.266776	-1.162613	-0.243415	-1.500144	2.519208	2.051157	-3.254755	-1.591172	1.078422	
-2.978926	-1.266861	-1.162556	-0.243343	-1.500252	2.519300	2.051445	-3.255163	-1.591122	1.078524	
-2.979173	-1.266946	-1.162499	-0.243271	-1.500359	2.519392	2.051733	-3.255570	-1.591073	1.078627	
-2.979421	-1.267031	-1.162443	-0.243200	-1.500466	2.519483	2.052020	-3.255977	-1.591023	1.078729	
-2.979668	-1.267116	-1.162386	-0.243128	-1.500574	2.519573	2.052308	-3.256383	-1.590972	1.078832	
-2.979914	-1.267200	-1.162329	-0.243056	-1.500681	2.519663	2.052595	-3.256788	-1.590922	1.078934	
-2.980160	-1.267284	-1.162272	-0.242985	-1.500788	2.519753	2.052882	-3.257193	-1.590871	1.079036	
-2.980405	-1.267368	-1.162215	-0.242913	-1.500895	2.519842	2.053169	-3.257597	-1.590820	1.079137	
-2.980650	-1.267452	-1.162158	-0.242841	-1.501002	2.519930	2.053456	-3.258000	-1.590769	1.079239	
-2.980895	-1.267535	-1.162101	-0.242770	-1.501108	2.520018	2.053743	-3.258402	-1.590717	1.079340	
-2.981139	-1.267618	-1.162044	-0.242698	-1.501215	2.520106	2.054029	-3.258804	-1.590666	1.079442	
-2.981382	-1.267701	-1.161986	-0.242627	-1.501322	2.520193	2.054315	-3.259205	-1.590614	1.079543	
-2.981626	-1.267784	-1.161929	-0.242555	-1.501428	2.520279	2.054602	-3.259606	-1.590561	1.079644	
-2.981868	-1.267866	-1.161871	-0.242484	-1.501535	2.520365	2.054888	-3.260006	-1.590509	1.079745	
-2.982110	-1.267948	-1.161814	-0.242412	-1.501641	2.520451	2.055173	-3.260405	-1.590456	1.079846	
-2.982352	-1.268030	-1.161756	-0.242341	-1.501748	2.520536	2.055459	-3.260803	-1.590403	1.079946	
-2.982593	-1.268112	-1.161699	-0.242269	-1.501854	2.520620	2.055745	-3.261201	-1.590350	1.080047	
-2.982834	-1.268193	-1.161641	-0.242198	-1.501960	2.520704	2.056030	-3.261598	-1.590297	1.080147	
-2.983074	-1.268274	-1.161583	-0.242126	-1.502066	2.520788	2.056315	-3.261994	-1.590243	1.080247	
-2.983314	-1.268355	-1.161526	-0.242055	-1.502172	2.520871	2.056600	-3.262390	-1.590190	1.080347	
-2.983554	-1.268435	-1.161468	-0.241984	-1.502278	2.520953	2.056885	-3.262785	-1.590136	1.080447	
-2.983793	-1.268516	-1.161410	-0.241912	-1.502384	2.521035	2.057170	-3.263180	-1.590081	1.080547	
-2.984031	-1.268596	-1.161352	-0.241841	-1.502490	2.521117	2.057454	-3.263573	-1.590027	1.080646	
-2.984270	-1.268675	-1.161294	-0.241770	-1.502596	2.521198	2.057739	-3.263966	-1.589972	1.080746	
-2.984507	-1.268755	-1.161236	-0.241698	-1.502701	2.521279	2.058023	-3.264359	-1.589917	1.080845	
-2.984744	-1.268834	-1.161178	-0.241627	-1.502807	2.521359	2.058307	-3.264751	-1.589862	1.080944	
-2.984981	-1.268913	-1.161119	-0.241556	-1.502913	2.521438	2.058591	-3.265142	-1.589807	1.081043	
-2.985218	-1.268992	-1.161061	-0.241485	-1.503018	2.521518	2.058875	-3.265532	-1.589751	1.081142	
-2.985454	-1.269071	-1.161003	-0.241414	-1.503123	2.521596	2.059158	-3.265922	-1.589695	1.081241	
-2.985689	-1.269149	-1.160944	-0.241343	-1.503229	2.521675	2.059442	-3.266311	-1.589639	1.081339	
-2.985924	-1.269227	-1.160886	-0.241271	-1.503334	2.521752	2.059725	-3.266700	-1.589583	1.081438	
-2.986159	-1.269305	-1.160827	-0.241200	-1.503439	2.521830	2.060008	-3.267088	-1.589526	1.081536	
-2.986393	-1.269382	-1.160769	-0.241129	-1.503544	2.521907	2.060291	-3.267475	-1.589470	1.081634	
-2.986627	-1.269459	-1.160710	-0.241058	-1.503649	2.521983	2.060574	-3.267862	-1.589413	1.081732	
-2.986860	-1.269537	-1.160651	-0.240987	-1.503754	2.522059	2.060857	-3.268248	-1.589356	1.081830	
-2.987093	-1.269613	-1.160593	-0.240916	-1.503859	2.522135	2.061139	-3.268634	-1.589298	1.081928	
-2.987326	-1.269690	-1.160534	-0.240845	-1.503964	2.522210	2.061422	-3.269018	-1.589241	1.082025	
-2.987558	-1.269766	-1.160475	-0.240774	-1.504068	2.522284	2.061704	-3.269403	-1.589183	1.082123	
-2.987790	-1.269842	-1.160416	-0.240703	-1.504173	2.522359	2.061986	-3.269786	-1.589125	1.082220	
-2.988021	-1.269918	-1.160357	-0.240632	-1.504278	2.522432	2.062268	-3.270169	-1.589067	1.082317	
-2.988252	-1.269994	-1.160298	-0.240562	-1.504382	2.522506	2.062550	-3.270552	-1.589009	1.082414	
-2.988482	-1.270069	-1.160239	-0.240491	-1.504487	2.522579	2.062831	-3.270933	-1.588950	1.082511	
-2.988712	-1.270144	-1.160180	-0.240420	-1.504591	2.522651	2.063113	-3.271315	-1.588891	1.082608	
-2.988942	-1.270219	-1.160121	-0.240349	-1.504695	2.522723	2.063394	-3.271695	-1.588832	1.082704	
-2.989171	-1.270294	-1.160062	-0.240278	-1.504800	2.522795	2.063675	-3.272075	-1.588773	1.082801	
-2.989400	-1.270368	-1.160002	-0.240208	-1.504904	2.522866	2.063956	-3.272455	-1.588714	1.082897	
-2.989629	-1.270442	-1.159943	-0.240137	-1.505008	2.522937	2.064237	-3.272833	-1.588654	1.082993	
-2.989857	-1.270516	-1.159884	-0.240066	-1.505112	2.523007	2.064518	-3.273211	-1.588595	1.083089	
-2.990084	-1.270590	-1.159824	-0.239995	-1.505216	2.523077	2.064799	-3.273589	-1.588535	1.083185	
